{"version": 2, "architecture": [35, 256, 128, 64, 1], "layers": [{"weights": [[0.1170007735490799, 0.3277132213115692, -0.0791127160191536, -0.08312729746103287, 0.4418672025203705, 0.0023821822833269835, 0.04563971981406212, 0.09553464502096176, -0.040499020367860794, 0.44079241156578064, -0.20359577238559723, 0.13924340903759003, 0.0025408377405256033, -0.3136093020439148, -0.05975854769349098, -0.20590823888778687, -0.02018527127802372, -0.018344681710004807, 0.15451432764530182, 0.021208427846431732, -0.45863211154937744, 0.8551689386367798, 0.03170151636004448, -0.6217520833015442, 0.12360847741365433, 0.10859490185976028, -0.2607637047767639, -0.12122591584920883, 0.2437874674797058, -0.4697209894657135, 0.17650353908538818, -0.5416801571846008, -0.03949077054858208, -0.3025597333908081, 0.3980341851711273], [-0.002200075890868902, -0.14371849596500397, -0.30130818486213684, 0.38089221715927124, 0.05361795797944069, -0.05041559785604477, -0.06458086520433426, 0.09450239688158035, 0.02558005414903164, 0.7597518563270569, 0.060971904546022415, 0.14411070942878723, 0.36418962478637695, 0.2226376086473465, -0.2682330012321472, -0.16970910131931305, -0.06594973057508469, -0.3984067440032959, -0.1229155883193016, -0.43213480710983276, -0.13991935551166534, -0.5586991310119629, 0.045205991715192795, 0.05435735359787941, -0.08392421156167984, -0.320827841758728, 0.44546157121658325, 0.2406252771615982, 0.06962987035512924, 0.06024113669991493, -0.13621000945568085, 0.5129272937774658, -0.01721145026385784, 0.034085702151060104, 0.13658104836940765], [0.18566282093524933, 0.1546129286289215, -0.13781216740608215, 0.14451828598976135, -0.010272889398038387, 0.14846587181091309, -0.32926008105278015, 0.034297287464141846, 0.18772132694721222, 0.16633348166942596, -0.23614870011806488, 0.12436539679765701, -0.15651947259902954, 0.25076913833618164, -0.1842755228281021, 0.20171932876110077, -0.049216046929359436, 0.07109703123569489, 0.0776299387216568, 0.018121669068932533, 0.038644421845674515, 0.29465174674987793, -0.1421291083097458, -0.05971696600317955, 0.06791680306196213, 0.038387056440114975, 0.035849761217832565, 0.24070148169994354, -0.10692132264375687, -0.09956154972314835, -0.019560787826776505, 0.3063102066516876, -0.052750397473573685, -0.4589744508266449, 0.017045577988028526], [0.3237207531929016, 0.16229774057865143, 0.11116485297679901, -0.14280472695827484, -0.03298105672001839, 0.286754846572876, -0.7131062746047974, -0.18872439861297607, -0.23839353024959564, -0.11132586747407913, 0.09015127271413803, -0.4614982604980469, 0.4138990044593811, -0.4436057209968567, -0.2479134202003479, -0.3255668580532074, 0.09743934124708176, 0.15440496802330017, -0.45015284419059753, -0.07070963829755783, -0.05529501661658287, -0.18056392669677734, 0.19532707333564758, 0.18202795088291168, -0.030071331188082695, 0.08371946960687637, 0.08246059715747833, -0.2872147858142853, -0.14012865722179413, -0.2345580756664276, 0.36057770252227783, -0.18778307735919952, 0.18097828328609467, 0.10232586413621902, 0.16849908232688904], [-0.09921656548976898, -0.1688445657491684, 0.14033174514770508, 0.16970689594745636, 0.10895709693431854, -0.17117834091186523, -0.030171236023306847, -0.14164701104164124, -0.16057024896144867, 0.19479039311408997, -0.23420749604701996, -0.06314744800329208, 0.20169617235660553, 0.2788616716861725, 0.3494907021522522, 0.46069014072418213, -0.30435752868652344, 0.01963491551578045, 0.4116726815700531, 0.008865472860634327, 0.11711207032203674, -0.05457792803645134, 0.5396595001220703, -0.29241612553596497, -0.2692272663116455, 0.10648481547832489, 0.3738279938697815, -0.2302170991897583, -0.04499983415007591, 0.03931703791022301, 0.24098366498947144, -0.4374675750732422, 0.03963323310017586, -0.1908695548772812, 0.3376387357711792], [-0.04516978934407234, 0.003996709827333689, -0.34035107493400574, 0.19035308063030243, -0.24569447338581085, -0.3060568869113922, 0.44345179200172424, -0.32223546504974365, -0.0999111607670784, 0.2370709776878357, -0.12684084475040436, 0.24752196669578552, 0.1570001095533371, 0.1992909014225006, -0.04793376848101616, 0.2222250998020172, -0.12811404466629028, -0.10863211005926132, -0.06584866344928741, -0.1797187775373459, -0.19393767416477203, -0.20925350487232208, -0.2166791409254074, -0.31653738021850586, 0.14655795693397522, 0.4169512987136841, -0.17327921092510223, 0.5117062926292419, 0.1905170977115631, -0.46615731716156006, 0.2884751856327057, 0.06732448935508728, 0.38448384404182434, -0.09273476898670197, -0.2210361808538437], [0.42085501551628113, -0.7253876328468323, 0.07512809336185455, 0.12331272661685944, -0.1287534534931183, -0.4648425877094269, 0.3689342737197876, 0.2205415815114975, -0.32751938700675964, -0.11822530627250671, -0.23782029747962952, -0.0346287339925766, 0.08210728317499161, 0.1534534990787506, 0.23360808193683624, 0.23533885180950165, 0.3873883783817291, 0.1036299616098404, 0.037461668252944946, 0.742034912109375, -0.17407214641571045, -0.1791410744190216, -0.08333942294120789, 0.12032464891672134, 0.49855494499206543, -0.12123344093561172, 0.2859463393688202, 0.3706043064594269, 0.41889551281929016, 0.018677638843655586, -0.0868649035692215, -0.26719748973846436, 0.5060858130455017, -0.2473209798336029, -0.02741324156522751], [0.1934802234172821, -0.23703420162200928, 0.19159094989299774, -0.4535822868347168, -0.47292807698249817, 0.045920561999082565, -0.07466897368431091, -0.024647409096360207, -0.2404923141002655, 0.5025413632392883, 0.12467731535434723, -0.3360007405281067, -0.03270334750413895, -0.16737446188926697, 0.2356969714164734, -0.02726094424724579, 0.17859722673892975, 0.14781537652015686, -0.018032146617770195, 0.30713751912117004, -0.02614421769976616, 0.5403637886047363, 0.17022600769996643, 0.2791517972946167, -0.2565391957759857, 0.01673666387796402, -0.6506960391998291, -0.010270031169056892, -0.16189317405223846, -0.2753848433494568, 0.08381009101867676, -0.0443195141851902, -0.0036258050240576267, 0.2664760947227478, -0.17502540349960327], [-0.11137320846319199, -0.0690464898943901, -0.4440685212612152, -0.15021315217018127, 0.10418254882097244, -0.3393821716308594, -0.15106718242168427, 0.43788424134254456, -0.12306318432092667, 0.03507136180996895, 0.25242185592651367, 0.0656183511018753, 0.250301331281662, -0.21097014844417572, 0.5238526463508606, -0.04403994232416153, -0.0852024257183075, 0.06747766584157944, 0.23239462077617645, -0.3001087009906769, 0.09645996242761612, 0.23143483698368073, 0.20119474828243256, -0.41540050506591797, -0.16541919112205505, -0.10675846040248871, -0.15782476961612701, 0.03041246347129345, 0.31619682908058167, 0.16931575536727905, -0.10309631377458572, 0.20712366700172424, -0.9679786562919617, 0.17917300760746002, -0.3884630799293518], [0.18216748535633087, -0.23786865174770355, 0.056791551411151886, -0.08432838320732117, 0.2328021079301834, -0.4805150032043457, -0.006750773638486862, -0.047988466918468475, 0.1988597959280014, 0.14607682824134827, -0.057400260120630264, 0.44002559781074524, 0.05379804968833923, 0.10362730920314789, -0.3636080026626587, -0.3723059594631195, 0.11171295493841171, -0.14284545183181763, -0.6637850999832153, 0.02408452332019806, 0.03760233521461487, -0.03305281698703766, -0.11780121922492981, 0.2933512330055237, -0.2155172973871231, 0.06491679698228836, -0.2788791358470917, -0.17707869410514832, -0.16802655160427094, -0.2314392775297165, -0.10206876695156097, -0.19354727864265442, 0.281100332736969, -0.008876433596014977, -0.12221822142601013], [-0.034250181168317795, 0.4947289228439331, -0.05663898587226868, -0.016586316749453545, -0.17388316988945007, 0.044244859367609024, -0.25138309597969055, -0.15239177644252777, 0.0634293481707573, 0.19437718391418457, -0.0473066009581089, 0.24444356560707092, -0.42975369095802307, 0.018485624343156815, 0.27234044671058655, -0.16701260209083557, -0.09679678082466125, 0.05088005214929581, 0.07430608570575714, -0.15180712938308716, 0.1255432367324829, 0.48749011754989624, -0.7125118970870972, -0.04454236477613449, 0.20661062002182007, 0.23928745090961456, -0.14608170092105865, 0.09689909964799881, -0.0706130862236023, -0.07053288072347641, 0.10657699406147003, 0.3333105146884918, -0.1952364146709442, -0.2458040565252304, 0.2227765917778015], [-0.16185534000396729, -0.40159863233566284, 0.1146782785654068, 0.1417708396911621, 0.3710327446460724, 0.5445036292076111, -0.013317517936229706, -0.3924597501754761, 0.014083072543144226, 0.07639464735984802, -0.32412198185920715, -0.01105126366019249, -0.2667822539806366, 0.4006209373474121, 0.2942008376121521, 0.1598767638206482, 0.2826307415962219, 0.2664220333099365, -0.06558644771575928, -0.25933560729026794, 0.2227199822664261, -0.45568180084228516, 0.388481080532074, 0.37419265508651733, 0.0888652428984642, -0.07740285247564316, -0.06548480689525604, -0.19622087478637695, -0.15886221826076508, 0.0437433160841465, -0.15225502848625183, 0.12397649139165878, -0.1845920979976654, 0.42889168858528137, 0.11664227396249771], [0.029458418488502502, -0.12433571368455887, -0.14978747069835663, 0.06077522784471512, -0.29710182547569275, -0.0077711124904453754, 0.24420924484729767, -0.5307424068450928, 0.19324007630348206, 0.3467273712158203, -0.069147028028965, 0.16605690121650696, -0.10621002316474915, 0.09097329527139664, -0.11950606107711792, 0.3776504099369049, -0.025637919083237648, -0.16004802286624908, -0.0863899439573288, -0.26207607984542847, 0.07437648624181747, -0.6119288206100464, 0.10982704162597656, 0.03932332620024681, -0.09736471623182297, -0.4655348062515259, 0.09913182258605957, -0.39628151059150696, 0.06191165745258331, -0.1657261997461319, 0.3620479702949524, 0.19345296919345856, -0.11589491367340088, -0.11887593567371368, 0.17075087130069733], [-0.45080432295799255, 0.015237479470670223, -0.3765599727630615, -0.2971939742565155, -0.300182044506073, 0.21672295033931732, 0.32649144530296326, -0.4683004319667816, -0.021699976176023483, -0.04199803248047829, -0.022680560126900673, -0.08928442001342773, 0.0923198014497757, -0.05552806705236435, 0.3149321973323822, -0.21262983977794647, 0.08678673207759857, 0.5005005598068237, 0.4032585918903351, 0.14098529517650604, 0.12740032374858856, -0.5990913510322571, -0.45578238368034363, -0.583808422088623, -0.3101406991481781, -0.004187653306871653, 0.14981208741664886, -0.29242971539497375, -0.08380629122257233, 0.04815857484936714, -0.10370542109012604, -0.015923654660582542, -0.19093339145183563, -0.5341150164604187, 0.06345286965370178], [-0.36821991205215454, 0.3712681233882904, -0.36369580030441284, 0.05720604583621025, 0.05840745195746422, -0.02009185031056404, -0.0011426756391301751, 0.05572917312383652, 0.07560817897319794, -0.21086160838603973, 0.6229376196861267, -0.41696858406066895, -0.0377848818898201, -0.2456052303314209, 0.0015289767179638147, -0.19170787930488586, 0.25346484780311584, -0.12417967617511749, -0.24680939316749573, -0.17840062081813812, -0.2682676315307617, -0.20779727399349213, -0.2143237590789795, -0.09303957223892212, 0.03934382274746895, 0.28364238142967224, 0.0021207837853580713, -0.054097991436719894, 0.23087583482265472, -0.39735710620880127, 0.22875156998634338, -0.4702465236186981, 0.06735283881425858, 0.10441451519727707, 0.09672416001558304], [-0.1919349879026413, -0.4331226944923401, 0.06835027784109116, 0.16505855321884155, 0.2149900496006012, -0.05889591574668884, -0.03877691179513931, 0.14303049445152283, -0.0173626895993948, -0.1845901608467102, -0.17460599541664124, -0.08826404064893723, 0.2179080992937088, 0.4018426239490509, 0.03754442557692528, 0.05318766459822655, -0.2339840978384018, 0.07675467431545258, 0.12986889481544495, 0.2621672451496124, -0.023505764082074165, 0.15285056829452515, 0.4229913055896759, 0.3263050615787506, -0.395742267370224, -0.25651225447654724, -0.20215894281864166, -0.22538816928863525, -0.2905774712562561, 0.22355325520038605, 0.3215344548225403, 0.18301363289356232, -0.33380502462387085, -0.31446826457977295, -0.15999548137187958], [-0.20774325728416443, 0.3382652699947357, 0.0939110666513443, 0.06389988958835602, 0.3449678122997284, 0.12312083691358566, -0.1841796487569809, -0.47738584876060486, -0.003192219650372863, 0.14983287453651428, 0.30110183358192444, 0.3457043468952179, -0.44488516449928284, -0.3410099744796753, -0.13026316463947296, -0.2984815537929535, 0.39572760462760925, -0.3044160008430481, 0.18026918172836304, 0.19108691811561584, 0.14097687602043152, 0.01887757144868374, 0.36335936188697815, -0.22603698074817657, 0.11282111704349518, -0.16039595007896423, 0.21498945355415344, -0.042585019022226334, 0.019372960552573204, 0.440951406955719, 0.22133930027484894, -0.03550175204873085, -0.2897160053253174, 0.32915547490119934, -0.09736824780702591], [0.09225047379732132, 0.04829733073711395, -0.3333755433559418, 0.2778642475605011, -0.14397749304771423, -0.034595414996147156, -0.32908540964126587, 0.2556001543998718, -0.12521809339523315, 0.11145007610321045, 0.290560781955719, -0.04670622572302818, 0.0026119595859199762, 0.445122629404068, -0.2574461102485657, 0.06728481501340866, -0.3384639620780945, 0.0710444226861, 0.34891989827156067, 0.34129422903060913, 0.17782457172870636, 0.09503636509180069, 0.25940293073654175, -0.13341626524925232, 0.22219254076480865, 0.4851241409778595, 0.11952745914459229, -0.21866151690483093, 0.12882083654403687, 0.5805567502975464, -0.2359468638896942, -0.3653578460216522, -0.0002068564499495551, -0.10779020190238953, 0.020984381437301636], [-0.30707067251205444, -0.32246941328048706, 0.14128360152244568, 0.190850630402565, 0.23272083699703217, 0.03581254929304123, -0.0994035080075264, -0.1124628409743309, -0.5909366607666016, 0.07385662943124771, 0.060966432094573975, -0.1401098519563675, -0.4203992486000061, -0.24318870902061462, 0.5386795401573181, -0.06312553584575653, 0.3669256269931793, -0.4473083019256592, -0.19362860918045044, -0.21226444840431213, -0.14261886477470398, -0.5153968334197998, -0.04466001316905022, 0.02625281549990177, -0.2857138216495514, -0.04870334267616272, 0.221363365650177, -0.17360301315784454, -0.5174126625061035, -0.05876887962222099, 0.12866340577602386, 0.3292977511882782, 0.21704331040382385, 0.17183126509189606, 0.044376619160175323], [-0.323153555393219, 0.11113918572664261, -0.4486205577850342, 0.06551744788885117, -0.041590820997953415, 0.041531361639499664, 0.10798671096563339, -0.035812150686979294, -0.07721889764070511, 0.3580559194087982, 0.3781869411468506, -0.11905687302350998, 0.22944241762161255, 0.4192746579647064, 0.004136776551604271, -0.029734347015619278, -0.036737389862537384, -0.15475508570671082, -0.1687406301498413, 0.05578768625855446, -0.12106665968894958, 0.2317197471857071, 0.07695074379444122, -0.6370548009872437, -0.3087494373321533, -0.0724121630191803, 0.14959058165550232, 0.16579826176166534, 0.43819159269332886, 0.1371147483587265, 0.2200743407011032, 0.44052785634994507, 0.13503359258174896, 0.42060789465904236, 0.0389966256916523], [0.43622153997421265, 0.12938249111175537, 0.0044573526829481125, 0.069886215031147, 0.026364656165242195, -0.18458543717861176, 0.11486292630434036, 0.3626258075237274, 0.337653785943985, -0.009615535847842693, 0.0848052054643631, 0.4902518093585968, 0.023054081946611404, 0.3857066035270691, 0.17478135228157043, -0.14636796712875366, -0.05277697369456291, -0.20717525482177734, 0.2639697790145874, 0.11250913888216019, -0.2369435876607895, 0.2162816971540451, -0.10658691078424454, 0.4994579553604126, 0.3619248569011688, -0.3409060537815094, 0.019008668139576912, 0.024774979799985886, -0.02762582339346409, -0.3108837902545929, 0.04110189527273178, -0.09278690069913864, -0.19194678962230682, -0.31219717860221863, -0.08675823360681534], [-0.006329084746539593, -0.1472739577293396, -0.23400229215621948, -0.41049978137016296, 0.19025704264640808, 0.2119980752468109, -0.12018154561519623, 0.21950484812259674, 0.20715266466140747, 0.17566262185573578, 0.11582542210817337, 0.3555675148963928, 0.09768367558717728, 0.006535460706800222, -0.16309542953968048, -0.20169328153133392, -0.4478570222854614, 0.06990943104028702, 0.11079312115907669, -0.1112625002861023, 0.062213167548179626, 0.20531992614269257, 0.23008780181407928, -0.13270199298858643, -0.18648673593997955, -0.27133986353874207, -0.19683557748794556, -0.00042604157351888716, -0.5012737512588501, 0.4152321219444275, -0.31460079550743103, 0.4912942945957184, -0.19877515733242035, -0.16252478957176208, -0.055366676300764084], [0.0393524132668972, 0.07961462438106537, -0.13773080706596375, 0.04753663018345833, 0.12844115495681763, -0.07982396334409714, 0.3500582277774811, -0.09733131527900696, 0.2053760439157486, -0.2505669593811035, -0.09724947065114975, 0.356353223323822, -0.13640959560871124, -0.32347261905670166, -0.20567943155765533, -0.010223622433841228, -0.08894272148609161, 0.18127894401550293, -0.3118117153644562, -0.2140047401189804, 0.27167806029319763, -0.48166394233703613, -0.1955077201128006, 0.07658993452787399, 0.27929919958114624, 0.36848556995391846, -0.09518318623304367, 0.1727675199508667, 0.06336252391338348, 0.1373739391565323, -0.10840412974357605, 0.03025985322892666, -0.15904958546161652, -0.015273595228791237, 0.6810150742530823], [-0.36937257647514343, -0.12162686139345169, 0.03789560869336128, 0.06316866725683212, -0.38241225481033325, -0.16229930520057678, -0.0021478270646184683, -0.2738897204399109, 0.2836032509803772, -0.037346649914979935, 0.28115755319595337, -0.053468964993953705, 0.32488396763801575, -0.07227601855993271, 0.3724462389945984, 0.08990927040576935, -0.18734188377857208, 0.15196941792964935, -0.12841783463954926, 0.3453952968120575, -0.1767524927854538, 0.15075688064098358, -0.07691339403390884, 0.11337427794933319, 0.01588473655283451, -0.041866958141326904, -0.09439890086650848, 0.1271878182888031, -0.0418408066034317, -0.10329297930002213, 0.19883835315704346, -0.0579698346555233, -0.014336145482957363, 0.3926718235015869, 0.22398780286312103], [-0.11061148345470428, 0.026862818747758865, -0.1351885348558426, 0.02566234953701496, 0.292015016078949, 0.07981407642364502, -0.08320178091526031, -0.5861243605613708, -0.01902877539396286, 0.12261811643838882, 0.22381405532360077, 0.016909070312976837, 0.29367396235466003, 0.11778199672698975, -0.3225520849227905, -0.08670685440301895, -0.057163503021001816, -0.6008998155593872, 0.13996148109436035, -0.0019089272245764732, 0.14909404516220093, -0.2773912250995636, 0.2630540728569031, 0.4195285439491272, -0.0005820664810016751, -0.14648790657520294, -0.058589592576026917, 0.28445279598236084, 0.05038532614707947, 0.32407346367836, -0.20807301998138428, -0.08268332481384277, 0.36009669303894043, -0.1276281774044037, 0.06864187866449356], [0.027616966515779495, 0.1650048941373825, 0.03917035833001137, -0.29283130168914795, 0.36508992314338684, -0.24795667827129364, -0.07874209433794022, -0.1875213235616684, 0.03130841255187988, 0.2445088028907776, -0.15085431933403015, -0.40714457631111145, 0.15332989394664764, -0.0687306821346283, -0.06567900627851486, -0.14916551113128662, -0.08047746866941452, 0.48868507146835327, 0.21670283377170563, 0.2015359252691269, 0.1093100905418396, -0.09172069281339645, 0.011059106327593327, 0.13707292079925537, 0.11842496693134308, 0.18239642679691315, 0.14574898779392242, -0.07389865815639496, 0.23860381543636322, -0.015957027673721313, -0.15653735399246216, 0.34223660826683044, -0.4620719850063324, -0.1520867943763733, -0.07455312460660934], [-0.22803527116775513, 0.4416176974773407, 0.18785391747951508, -0.2484062910079956, -0.1702464371919632, -0.01748669706285, -0.5261216163635254, -0.2766079306602478, -0.10708434879779816, -0.09588006138801575, -0.33111652731895447, 0.30413618683815, -0.0038689770735800266, -0.2157444953918457, -0.0221308171749115, 0.04358036071062088, 0.30305159091949463, 0.09538891166448593, -0.1761099398136139, -0.22930482029914856, -0.10282416641712189, 0.10801877826452255, 0.34705519676208496, -0.06941651552915573, -0.174671933054924, -0.2907435894012451, 0.2357017993927002, -0.13411283493041992, 0.24184606969356537, -0.14087994396686554, 0.4137611985206604, -0.18996921181678772, -0.0734454020857811, 0.07369572669267654, -0.11444268375635147], [0.05531898885965347, -0.3732772171497345, -0.3235495984554291, 0.24986913800239563, 0.17986994981765747, 0.02578948624432087, 0.24289967119693756, -0.20984025299549103, -0.08118079602718353, -0.032360732555389404, -0.050588276237249374, -0.3256929814815521, 0.11394914984703064, -0.0850893184542656, 0.05087910592556, 0.4062334895133972, 0.004003267735242844, -0.19580912590026855, -0.6860372424125671, -0.3114714026451111, 0.003982244990766048, -0.04935339465737343, -0.28186964988708496, -0.21110504865646362, -0.021887529641389847, 0.48995447158813477, -0.07386957108974457, -0.2741696834564209, 0.02881178818643093, -0.05218774080276489, 0.1061989963054657, 0.12766793370246887, -0.4253237545490265, -0.11653799563646317, -0.03154353052377701], [-0.1409951150417328, 0.5125376582145691, 0.03464331105351448, -0.00899360328912735, 0.102176234126091, 0.298871785402298, 0.08999153226613998, 0.017870493233203888, 0.10301361978054047, -0.44199806451797485, -0.09699160605669022, 0.14168238639831543, -0.22620581090450287, -0.0922389104962349, -0.12968148291110992, -0.08746002614498138, 0.10529626160860062, -0.033225059509277344, 0.13504385948181152, -0.19390404224395752, 0.3228103816509247, -0.3467905819416046, -0.10021388530731201, 0.24171139299869537, -0.06298169493675232, 0.3480652868747711, 0.01653938740491867, -0.17594477534294128, 0.15336473286151886, -0.40399402379989624, -0.07540624588727951, -0.2681911289691925, -0.2709820568561554, 0.17544835805892944, 0.011579799465835094], [-0.13496075570583344, -0.48117589950561523, -0.2110837996006012, 0.09930681437253952, -0.016515670344233513, 0.06092274934053421, 0.06999088823795319, -0.04448616877198219, 0.17644652724266052, -0.11357329040765762, -0.03711177781224251, -0.31273186206817627, 0.2478046715259552, -0.7921808362007141, 0.1031174436211586, 0.30017608404159546, -0.18251417577266693, -0.08293182402849197, -0.3115672767162323, -0.08142303675413132, 0.17550192773342133, -0.11235514283180237, -0.07200945168733597, -0.40170788764953613, -0.1766129434108734, -0.01247430220246315, 0.044971026480197906, 0.1529303938150406, -0.05858270078897476, 0.2253599464893341, -0.16186518967151642, -0.12365113943815231, 0.1437082439661026, -0.22840070724487305, -0.49310600757598877], [-0.15299411118030548, -0.03946418687701225, 0.06283509731292725, -0.050580061972141266, -0.1372494399547577, 0.05936121568083763, 0.013632018119096756, -0.0808541551232338, -0.07081446051597595, 0.2005399465560913, 0.2932167947292328, -0.1557912528514862, 0.39763179421424866, 0.03708350285887718, 0.16872864961624146, -0.31812596321105957, -0.16234160959720612, -0.17101575434207916, -0.44266772270202637, -0.3002330958843231, 0.5148357152938843, -0.3886149227619171, 0.021615248173475266, 0.19802787899971008, 0.14108237624168396, -0.16335967183113098, -0.17267248034477234, 0.2908867597579956, 0.38167068362236023, -0.3115963935852051, 0.12667815387248993, 0.18005791306495667, 0.14457842707633972, 0.5896854996681213, -0.3916449248790741], [0.4591442942619324, 0.22897404432296753, 0.3916531205177307, -0.024569936096668243, -0.20155125856399536, 0.1649569422006607, 0.16889597475528717, -0.24542371928691864, -0.1352895349264145, 0.22700080275535583, -0.1815849095582962, -0.22732046246528625, 0.29386258125305176, -0.28347867727279663, 0.23055507242679596, 0.08444864302873611, 0.5045073628425598, 0.03615012764930725, -0.6337530612945557, -0.026458043605089188, -0.17193172872066498, 0.3816463053226471, -0.23873089253902435, -0.2063291370868683, -0.014282768592238426, -0.5874187350273132, -0.15349455177783966, 0.20133432745933533, -0.33773937821388245, -0.24183009564876556, -0.27571791410446167, -0.06366073340177536, -0.01137566938996315, -0.3161889612674713, -0.16149340569972992], [0.038202736526727676, 0.08300420641899109, -0.688561201095581, 0.2622392475605011, 0.03579244017601013, 0.3276486098766327, -0.35474660992622375, 0.05972400680184364, 0.019066492095589638, 0.08922899514436722, 0.013975551351904869, -0.0746619701385498, -0.18471485376358032, -0.014041752554476261, -0.25293153524398804, -0.2917875647544861, -0.19328263401985168, -0.0812874436378479, 0.1446506828069687, -0.3884132206439972, 0.06375803053379059, 0.1184905469417572, -0.12335772812366486, 0.400723934173584, -0.10082930326461792, -0.4327491521835327, -0.4221046268939972, -0.4243464171886444, 0.040496449917554855, -0.26430460810661316, -0.06687302887439728, -0.052596911787986755, 0.17323186993598938, -0.099150151014328, 0.05698108300566673], [-0.3178332448005676, -0.167644202709198, -0.15710946917533875, -0.14364558458328247, 0.30560633540153503, 0.11970190703868866, -0.11643888056278229, 0.0858040377497673, 0.11719134449958801, 0.02656662091612816, 0.028191586956381798, -0.14462657272815704, 0.05106494575738907, -0.5357706546783447, -0.055215898901224136, -0.29975512623786926, 0.4400063455104828, -0.15842801332473755, 0.09464647620916367, -0.32393893599510193, -0.0981893390417099, 0.36818382143974304, -0.29896554350852966, 0.07043997198343277, -0.24611711502075195, -0.42579156160354614, -0.08623936027288437, 0.2273852378129959, 0.08028008788824081, 0.18088902533054352, 0.018871711567044258, 0.21688048541545868, -0.028727378696203232, -0.016833364963531494, -0.06995277106761932], [0.19486701488494873, -0.04899413138628006, 0.07491988688707352, -0.01393022108823061, 0.1098361611366272, 0.09110300242900848, 0.17754223942756653, -0.20508736371994019, -0.3283453583717346, -0.10535870492458344, 0.1943262666463852, -0.14674235880374908, -0.26115116477012634, -0.46944063901901245, 0.22367510199546814, -0.1954413205385208, -0.000722650729585439, -0.1653447151184082, -0.07438161224126816, 0.1749764233827591, -0.19568267464637756, -0.06042979285120964, 0.234946608543396, 0.07465860247612, 0.4149678349494934, 0.10205947607755661, 0.06746530532836914, -0.432706743478775, 0.18194442987442017, -0.2679498791694641, 0.426867812871933, 0.4306955635547638, -0.1327790468931198, 0.46466848254203796, 0.35758644342422485], [-0.30077093839645386, -0.11084266006946564, -0.04094453155994415, -0.07951182126998901, -0.09290965646505356, -0.2697352468967438, -0.1947368085384369, 0.3254329562187195, -0.5855069756507874, -0.17696139216423035, -0.552159309387207, 0.17049269378185272, 0.1391170173883438, -0.34171706438064575, 0.199007049202919, 0.2919306457042694, 0.03323233500123024, -0.36590996384620667, 0.3929812014102936, 0.11405126750469208, -0.10173144191503525, -0.1388523429632187, 0.1819385588169098, 0.06584227830171585, 0.23614448308944702, -0.046135321259498596, -0.1114676222205162, 0.19259870052337646, -0.18202461302280426, -0.29773449897766113, 0.10748820006847382, 0.15784907341003418, 0.49063652753829956, -0.3142246901988983, -0.4031946659088135], [-0.009846915490925312, -0.24129422008991241, 0.11437778174877167, -0.04154670238494873, 0.251291960477829, -0.2573529779911041, 0.1461474448442459, 0.06299830973148346, -0.14731265604496002, 0.23802095651626587, -0.09524823725223541, -0.3503260910511017, 0.09371372312307358, -0.10458523035049438, -0.2533583641052246, 0.3044401705265045, 0.12396559864282608, 0.0697597861289978, 0.03978973999619484, 0.002215740969404578, 0.19163085520267487, -0.2290494441986084, -0.3184799253940582, -0.5013165473937988, 0.1707192063331604, -0.32918205857276917, -0.18408671021461487, -0.03424965217709541, -0.51693195104599, -0.09026870876550674, -0.21259823441505432, -0.19117529690265656, -0.09023530781269073, 0.5151768922805786, -0.12986966967582703], [-0.5290565490722656, 0.13980770111083984, -0.19322337210178375, -0.0856238380074501, -0.551909327507019, -0.06337479501962662, -0.3247665464878082, 0.009807126596570015, -0.29256004095077515, 0.09828455001115799, 0.06709744781255722, 0.06376824527978897, -0.47763705253601074, 0.42080214619636536, 0.11449109762907028, 0.1267004758119583, 0.2879539132118225, 0.10737254470586777, 0.34609442949295044, -0.24356809258460999, 0.6404666304588318, 0.2715017795562744, 0.448748916387558, -0.2347317934036255, -0.06487783789634705, -0.15890763700008392, 0.028794966638088226, 0.1601533591747284, 0.02560541220009327, -0.03609343245625496, 0.22236742079257965, -0.13956323266029358, 0.1678057163953781, 0.185073584318161, 0.38015511631965637], [-0.2722713053226471, 0.12302953004837036, 0.02866256609559059, 0.03606351464986801, 0.2722040116786957, -0.15501418709754944, 0.10148674249649048, 0.18290382623672485, -0.1409282088279724, 0.07530465722084045, 0.28199344873428345, 0.30588820576667786, -0.2776658833026886, -0.11358867585659027, -0.5226679444313049, -0.45068609714508057, -0.024933049455285072, 0.09292350709438324, -0.3122406005859375, -0.22021110355854034, -0.06060667335987091, -0.09491024911403656, 0.5425989627838135, 0.1202753484249115, -0.44753411412239075, 0.19771569967269897, 0.1274787336587906, -0.3379457890987396, 0.1858639270067215, -0.2403983175754547, -0.03202633932232857, -0.0005531444912776351, 0.050307631492614746, 0.0857977569103241, 0.009378733113408089], [0.03838745132088661, -0.13199174404144287, -0.07153678685426712, -0.09858721494674683, -0.4494837522506714, -0.045910224318504333, -0.021036537364125252, 0.13687670230865479, 0.0019705574959516525, -0.03737783804535866, -0.10174386203289032, -0.11208662390708923, -0.08103840798139572, 0.049494367092847824, 0.006078711245208979, -0.03952289745211601, -0.10961858928203583, 0.22700931131839752, -0.022814925760030746, -0.05721493810415268, -0.2393890768289566, 0.2055809497833252, 0.07205117493867874, -0.0667809545993805, 0.426387757062912, 0.2663235664367676, -0.24416667222976685, 0.31343045830726624, 0.3051142692565918, -0.36595553159713745, -0.0919218584895134, 0.046027373522520065, -0.45079952478408813, -0.38548582792282104, 0.206740140914917], [0.14085818827152252, 0.15177060663700104, 0.2634914517402649, 0.2771069407463074, -0.08632057160139084, -0.04588319733738899, -0.3076232969760895, 0.26177850365638733, -0.1493421196937561, -0.5376378893852234, -0.3863978683948517, -0.1750084012746811, -0.05942879617214203, 0.01501784473657608, 0.46553224325180054, 0.10631650686264038, -0.07883717119693756, 0.07798521965742111, -0.3879644274711609, 0.14036521315574646, 0.09647895395755768, -0.044193606823682785, -0.053547490388154984, 0.3735905885696411, -0.022987281903624535, -0.5481283664703369, 0.16331584751605988, -0.3595985174179077, -0.40332117676734924, 0.4620686173439026, 0.007583995349705219, -0.18571902811527252, -0.5282182097434998, 0.2510499060153961, 0.4757036566734314], [-0.009526919573545456, 0.04757962003350258, 0.007432060316205025, -0.2111712545156479, -0.2326141744852066, 0.14783011376857758, 0.3540254831314087, 0.015878798440098763, 0.31896641850471497, 0.29708003997802734, 0.12260904908180237, -0.07681884616613388, -0.2794683873653412, 0.024151258170604706, -0.12738564610481262, 0.1741030365228653, 0.11598346382379532, -0.12719009816646576, -0.036556728184223175, 0.21029838919639587, -0.519248902797699, -0.6457192301750183, 0.7117794156074524, 0.22639329731464386, -0.18420416116714478, -0.25497254729270935, 0.2701065242290497, -0.1388619989156723, 0.2782371938228607, -0.22089716792106628, 0.2932348847389221, 0.1389954686164856, -0.05383030325174332, -0.15491706132888794, -0.15971408784389496], [-0.07756592333316803, 0.14018464088439941, 0.2511132061481476, -0.09931358695030212, -0.3610559403896332, 0.017805157229304314, -0.09917572885751724, -0.1756161004304886, 0.06650099903345108, -0.104777991771698, -0.05990331619977951, 0.31634998321533203, -0.004325983114540577, 0.011381404474377632, -0.17716601490974426, -0.41485849022865295, 0.22966055572032928, 0.16288693249225616, -0.047989603132009506, -0.09897708147764206, 0.026688722893595695, -0.29478421807289124, -0.31641820073127747, -0.17179200053215027, 0.022160857915878296, -0.4509049952030182, -0.2712809443473816, -0.17981547117233276, 0.5332099795341492, 0.022424673661589622, 0.002998713403940201, -0.010291443206369877, 0.2819574177265167, 0.3311765193939209, 0.04035983234643936], [-0.04946776479482651, 0.14472177624702454, -0.00974111445248127, -0.1422712206840515, 0.4502693712711334, 0.24779358506202698, -0.18824130296707153, 0.19256147742271423, 0.0583755299448967, -0.21882016956806183, -0.2866164445877075, 0.0985148623585701, 0.06617996096611023, -0.48792436718940735, 0.160371795296669, -0.21602493524551392, -0.0006244247779250145, -0.3058418333530426, 0.14385631680488586, -0.2644319534301758, 0.237069770693779, -0.37709638476371765, -0.033937450498342514, -0.15882602334022522, 0.24234862625598907, 0.3821521997451782, -0.14534923434257507, -0.3196623921394348, -0.22714544832706451, -0.19290407001972198, -0.10164570063352585, -0.3709757924079895, 0.1251010000705719, -0.18063944578170776, -0.07302264869213104], [-0.47512900829315186, -0.30762869119644165, -0.17541053891181946, 0.31499210000038147, -0.055902548134326935, 0.0641346126794815, 0.06558993458747864, -0.2731441259384155, 0.12239625304937363, 0.11961223185062408, -0.06143677607178688, -0.04622524976730347, -0.10052850842475891, 0.35212692618370056, -0.32399851083755493, 0.0912027508020401, 0.2062637060880661, -0.27598655223846436, -0.041587743908166885, 0.057053036987781525, 0.08323588967323303, -0.07772161066532135, 0.011314934119582176, 0.08124255388975143, 0.02393132448196411, 0.10371048003435135, 0.1994418501853943, 0.016547808423638344, -0.3197669982910156, -0.15633977949619293, 0.38782814145088196, -0.1880844086408615, 0.2306436002254486, 0.07915898412466049, -0.4156509339809418], [-0.20050877332687378, -0.16907040774822235, -0.17728115618228912, 0.03572043776512146, 0.16370326280593872, -0.4733434319496155, 0.3095778822898865, 0.028330979868769646, -0.31630799174308777, -0.09570903331041336, -0.05405179038643837, 0.1039561927318573, -0.1571449190378189, 0.47057631611824036, -0.1467454731464386, 0.1611965447664261, 0.396297812461853, -0.22340086102485657, 0.09680824726819992, -0.22617404162883759, 0.32523688673973083, -0.28161028027534485, 0.4219425320625305, -0.5522078275680542, 0.3202417194843292, -0.15245279669761658, -0.19844157993793488, 0.38131994009017944, -0.16570228338241577, 0.13253742456436157, -0.3541552722454071, -0.20366163551807404, -0.24243244528770447, -0.11137676984071732, -0.09875195473432541], [-0.07824931293725967, 0.2670416235923767, 0.14654076099395752, 0.2238650918006897, -0.02430667169392109, -0.23932614922523499, -0.23903846740722656, -0.07618679851293564, 0.22973588109016418, 0.29355159401893616, -0.2076718658208847, -0.2361290156841278, 0.27825242280960083, -0.40091848373413086, 0.15324337780475616, -0.5103180408477783, 0.1292075514793396, 0.19796496629714966, 0.25697949528694153, -0.1576043963432312, -0.08499708026647568, 0.3228391706943512, 0.13395997881889343, 0.4150593876838684, 0.3223339915275574, -0.1033596321940422, -0.3329150080680847, 0.6231227517127991, 0.044173721224069595, 0.22015483677387238, -0.2967068552970886, -0.0646255612373352, 0.31750014424324036, -0.23449835181236267, 0.17579913139343262], [0.27976280450820923, 0.214554563164711, -0.061871446669101715, -0.38806381821632385, 0.05724504962563515, -0.06488708406686783, 0.0260237455368042, 0.008162898011505604, -0.036624517291784286, 0.08925037831068039, -0.5939168334007263, 0.18691569566726685, 0.51092928647995, -0.26365354657173157, -0.17682331800460815, -0.0583893284201622, 0.0971384346485138, 0.21773992478847504, 0.4836432635784149, 0.3915446102619171, -0.018025297671556473, -0.019526522606611252, -0.05956856161355972, 0.14635345339775085, -0.31657877564430237, -0.04437575116753578, -0.2088375836610794, -0.037558864802122116, 0.23193880915641785, -0.07163437455892563, -0.3539884090423584, 0.4688534736633301, -0.15982066094875336, 0.10252411663532257, 0.11202888935804367], [0.09159520268440247, 0.03244498744606972, 0.050916194915771484, 0.028088899329304695, -0.012071230448782444, -0.32107576727867126, 0.08455544710159302, -0.067509226500988, 0.09890884906053543, 0.08651671558618546, 0.1799459159374237, 0.07638794928789139, -0.0714239776134491, -0.17091074585914612, -0.08987994492053986, 0.02839910425245762, -0.3058988153934479, 0.057592619210481644, -0.02248300239443779, 0.1487444043159485, -0.1411316692829132, 0.07406264543533325, -0.21954931318759918, 0.29690760374069214, -0.10102096945047379, -0.5266068577766418, -0.04557446762919426, 0.2087276428937912, -0.15910719335079193, -0.3239149749279022, 0.12086848169565201, 0.03528242185711861, 0.0020193743985146284, 0.20373624563217163, 0.11107022315263748], [-0.44267773628234863, 0.04165279492735863, 0.4440133571624756, 0.2071165144443512, -0.2610752582550049, 0.1924924999475479, 0.16212239861488342, -0.42494526505470276, -0.25122663378715515, -0.38811492919921875, 0.3021707236766815, -0.040650028735399246, -0.17710451781749725, -0.377963125705719, 0.09725340455770493, 0.14748238027095795, -0.6189435720443726, 0.19094425439834595, -0.1974298059940338, 0.043773479759693146, -0.2556598484516144, 0.1585961878299713, -0.15742483735084534, -0.509394645690918, 0.2634813189506531, 0.1749023199081421, -0.22262132167816162, 0.05835000053048134, 0.41363394260406494, 0.22995449602603912, 0.059403449296951294, -0.15990498661994934, 0.016593612730503082, 0.30124631524086, -0.08793579787015915], [0.17526692152023315, 0.37099623680114746, 0.14876964688301086, 0.05484693497419357, 0.1953323483467102, 0.3230454623699188, -0.08525696396827698, -0.11504512280225754, -0.31451040506362915, 0.3184448182582855, 0.17208796739578247, -0.22347725927829742, 0.13641153275966644, -0.08252876251935959, 0.0903877392411232, 0.1291644275188446, -0.03283051401376724, -0.11299625784158707, 0.043141745030879974, -0.2928016781806946, -0.040822483599185944, 0.49558907747268677, -0.1497097760438919, 0.35339245200157166, -0.6592654585838318, -0.27330678701400757, -0.06866565346717834, 0.11737766861915588, -0.29096436500549316, -0.10620952397584915, 0.5195574760437012, -0.01723349653184414, -0.00565073499456048, -0.576004683971405, -0.1966048777103424], [-0.12277594208717346, -0.1857539415359497, -0.10524202138185501, 0.25320762395858765, -0.18038403987884521, 0.2702450156211853, -0.09736959636211395, 0.0194033682346344, 0.1716635525226593, 0.08321387320756912, -0.2393297553062439, -0.17765510082244873, -0.08426417410373688, -0.07088474184274673, 0.13445299863815308, 0.22920076549053192, 0.023585012182593346, 0.10695936530828476, -0.20439963042736053, 0.03317141905426979, -0.2722119688987732, 0.022824972867965698, 0.07829786837100983, 0.6707140803337097, -0.020974144339561462, 0.1358175128698349, 0.009095728397369385, -0.06239623948931694, -0.5422791838645935, 0.4083705246448517, 0.08158548176288605, -0.09181196987628937, 0.2818814218044281, 0.28415390849113464, 0.29646462202072144], [-0.15390895307064056, 0.1395643800497055, 0.28749698400497437, -0.15529145300388336, -0.39962899684906006, -0.0755043625831604, -0.30157631635665894, 0.05681770667433739, 0.059330347925424576, -0.0937509685754776, -0.03625275567173958, 0.132720485329628, -0.049991343170404434, 0.37831732630729675, -0.09879769384860992, -0.2004324197769165, -0.12228899449110031, -0.06545678526163101, 0.38428881764411926, 0.2035863846540451, -0.007163535337895155, -0.21332360804080963, -0.1290072351694107, -0.3225820064544678, -0.30493390560150146, -0.09293603152036667, 0.3520454466342926, 0.033867791295051575, 0.1643517166376114, -0.48883941769599915, -0.10346051305532455, 0.034870680421590805, -0.30632638931274414, 0.5443692803382874, -0.19727221131324768], [0.14420683681964874, -0.05530058220028877, -0.12147069722414017, 0.2662370502948761, -0.1600799262523651, 0.34691938757896423, 0.015843287110328674, -0.23272283375263214, -0.2666590213775635, 0.013096769340336323, 0.03289560228586197, 0.2828720211982727, 0.17393045127391815, 0.20855504274368286, 0.08280371874570847, -0.4496167004108429, 0.10511897504329681, 0.19494180381298065, -0.07365347445011139, -0.09990844875574112, -0.22952984273433685, -0.44425851106643677, -0.329422265291214, 0.3368374705314636, -0.11517331004142761, -0.30869343876838684, -0.036877796053886414, 0.08186808228492737, -0.5754594206809998, -0.02528722956776619, 0.11802002787590027, 0.06667162477970123, -0.29572951793670654, -0.08795363456010818, 0.06456536054611206], [0.26903724670410156, -0.07145940512418747, -0.6037315130233765, 0.4734303951263428, 0.31766262650489807, -0.019735468551516533, -0.17740176618099213, 0.26376283168792725, -0.28984686732292175, -0.5617678165435791, 0.09636467695236206, -0.2235558182001114, -0.3834231495857239, 0.04316340759396553, -0.10708718001842499, -0.16417984664440155, 0.03495471552014351, -0.07669634371995926, -0.11060478538274765, 0.23337383568286896, 0.08786395937204361, -0.21372365951538086, 0.2322048544883728, 0.12732262909412384, -0.07085568457841873, -0.4417922794818878, 0.20371493697166443, -0.18871377408504486, -0.08470843732357025, 0.4041675627231598, 0.06819968670606613, 0.22760960459709167, 0.01604391261935234, 0.5813219547271729, 0.012904752977192402], [0.277342826128006, 0.3180476725101471, -0.2981433570384979, -0.1326325684785843, 0.1414320319890976, -0.14981254935264587, -0.5493559837341309, -0.2932577133178711, 0.22883187234401703, 0.11212227493524551, 0.08868052810430527, 0.04817471653223038, 0.38024234771728516, 0.26085472106933594, 0.1262969821691513, 0.242705836892128, 0.3508736491203308, -0.08396109938621521, -0.07043471187353134, 0.25298410654067993, 0.4244273900985718, -0.15609438717365265, -0.019411427900195122, -0.26752057671546936, -0.035125892609357834, -0.23472517728805542, 0.3628405034542084, -0.049156345427036285, 0.7371436357498169, -0.1454026699066162, -0.34525007009506226, -0.06521739810705185, -0.14707452058792114, -0.023415211588144302, 0.3079545199871063], [-0.1379518210887909, 0.2347116768360138, -0.34210577607154846, -0.1298278570175171, -0.1016223281621933, -0.19507203996181488, 0.10594947636127472, 0.18501581251621246, -0.297932893037796, -0.3201715350151062, -0.18344248831272125, -0.5137771964073181, 0.04149360582232475, 0.11633861064910889, -0.15577411651611328, 0.2661990523338318, 0.0001826585503295064, 0.11638853698968887, 0.15598054230213165, 0.3943948745727539, -0.2911585569381714, -0.17130053043365479, -0.41462716460227966, 0.03035554848611355, -0.11864928156137466, -0.27967727184295654, 0.3030398488044739, -0.06438428908586502, 0.05535828322172165, 0.03925897181034088, 0.5945212244987488, 0.3963823914527893, 0.78199702501297, -0.20306523144245148, 0.213642418384552], [-0.05393144115805626, 0.20660662651062012, -0.13842153549194336, 0.3115711510181427, -0.08304725587368011, -0.08349747210741043, 0.1716097742319107, 0.082266665995121, 0.37122273445129395, -0.31236016750335693, 0.013749371282756329, -0.17213188111782074, -0.05899825692176819, -0.0456976518034935, -0.04320783540606499, 0.18138310313224792, -0.14443613588809967, 0.20787405967712402, -0.05080385506153107, 0.044353798031806946, -0.42458680272102356, -0.07046180218458176, 0.040611382573843, 0.30957022309303284, -0.22492006421089172, 0.20808443427085876, 0.07236611098051071, 0.18110987544059753, -0.33548420667648315, 0.03419424220919609, 0.1286475658416748, 0.20328782498836517, 0.11707402765750885, -0.09590484946966171, -0.3460700511932373], [0.10153865069150925, 0.38542988896369934, 0.054214853793382645, 0.4793107211589813, -0.1974591463804245, -0.08848493546247482, -0.5991172790527344, -0.09527450799942017, -0.16544902324676514, -0.29452744126319885, -0.03610708937048912, -0.057746224105358124, 0.18240852653980255, -0.16413705050945282, -0.21681006252765656, 0.11615084111690521, 0.2513965666294098, -0.11448534578084946, -0.19854769110679626, 0.2852824628353119, 0.08378848433494568, 0.08672745525836945, 0.04634649306535721, -0.23809631168842316, 0.5573655366897583, -0.16197867691516876, -0.46241387724876404, -0.14795921742916107, 0.007643663790076971, -0.010442038998007774, 0.005547707434743643, -0.11019076406955719, -0.013001554645597935, 0.19205528497695923, -0.3154977262020111], [0.27579495310783386, 0.053613051772117615, 0.4799060523509979, -0.14673615992069244, 0.4397767186164856, 0.027354083955287933, -0.31640321016311646, 0.4211110472679138, 0.11160888522863388, 0.24947893619537354, 0.31277763843536377, -0.20684179663658142, 0.014324930496513844, -0.0701085776090622, -0.0551912821829319, 0.03204863518476486, -0.005676273722201586, -0.08329355716705322, 0.4133133888244629, 0.32769671082496643, 0.11204763501882553, -0.2283337563276291, -0.4226025342941284, 0.2287978231906891, 0.4901382029056549, 0.1967931091785431, 0.18147508800029755, -0.05701158195734024, -0.03403673321008682, -0.0184079110622406, 0.15474779903888702, 0.48820364475250244, -0.25454413890838623, -0.10259942710399628, 0.10705240070819855], [-0.06810921430587769, 0.24560993909835815, 0.16621871292591095, -0.08886871486902237, 0.0874018594622612, 0.0375489704310894, 0.12095844745635986, -0.32768452167510986, -0.055140137672424316, -0.06401746720075607, 0.14375361800193787, -0.1604098528623581, -0.4069744944572449, 0.2092677354812622, -0.15791095793247223, -0.12350038439035416, 0.11998143047094345, -0.2823176681995392, -0.20040419697761536, 0.1296360045671463, 0.029568595811724663, 0.03410566598176956, 0.08887691795825958, -0.46728989481925964, -0.2646641433238983, 0.037034884095191956, 0.3686661720275879, 0.44493982195854187, 0.1292182058095932, -0.05369250848889351, 0.1568087339401245, 0.09153541177511215, -0.486253023147583, -0.21289679408073425, -0.0014630509540438652], [-0.05254955589771271, -0.010318098589777946, -0.002959673060104251, -0.04268521070480347, 0.040683526545763016, -0.02166372537612915, 0.5071096420288086, 0.2889355421066284, 0.1523286998271942, 0.39493775367736816, 0.18361426889896393, -0.1395856887102127, 0.3553074300289154, -0.058499954640865326, -0.2841624915599823, -0.029499094933271408, -0.11945874989032745, -0.610140323638916, 0.04476696997880936, -0.12337638437747955, -0.23421522974967957, 0.46619391441345215, -0.20907221734523773, -0.33513522148132324, 0.4326883852481842, -0.30618587136268616, 0.1257576048374176, 0.31166109442710876, 0.07016265392303467, -0.18941546976566315, 0.027061523869633675, -0.15902994573116302, -0.30604007840156555, -0.022618915885686874, -0.13348343968391418], [-0.22415569424629211, 0.10235060751438141, 0.23801930248737335, -0.418382465839386, 0.18731586635112762, 0.050939079374074936, -0.053550928831100464, 0.21641896665096283, -0.17755542695522308, -0.23710155487060547, 0.01244761049747467, 0.10179249942302704, -0.005739513784646988, -0.5864250063896179, -0.009598033502697945, 0.3217529058456421, -0.16660188138484955, -0.055322665721178055, 0.2181224673986435, -0.15579159557819366, 0.03808750584721565, -0.02556953951716423, 0.44298744201660156, 0.038587868213653564, -0.0550290122628212, 0.02730593830347061, 0.5131786465644836, 0.2694191038608551, -0.17684094607830048, 0.27541112899780273, -0.12255013734102249, 0.401469349861145, 0.029259487986564636, 0.07958945631980896, 0.2000882774591446], [-0.24310708045959473, -0.01148216612637043, -0.5910546779632568, -0.19395942986011505, 0.031741704791784286, 0.25764769315719604, -0.2837328016757965, -0.1171511635184288, -0.05555928871035576, -0.4799533486366272, 0.3319283425807953, -0.05980045720934868, 0.10679737478494644, -0.030115503817796707, -0.08202540129423141, -0.3706459701061249, 0.03095901571214199, 0.18572795391082764, -0.39142704010009766, 0.04130169749259949, -0.0059629748575389385, 0.17354314029216766, 0.01871648244559765, 0.02450043335556984, 0.020352093502879143, 0.2063649445772171, 0.12865088880062103, -0.0022053979337215424, 0.28334036469459534, 0.06466260552406311, 0.2346639335155487, 0.4078138470649719, 0.29859301447868347, 0.11648891121149063, 0.002087194472551346], [0.16167202591896057, 0.02487633377313614, 0.11765754967927933, -0.25876379013061523, -0.07495076209306717, 0.18152089416980743, 0.03465069830417633, 0.26274484395980835, 0.02492711693048477, -0.21726462244987488, -0.0340314544737339, -0.6628201603889465, 0.3388955891132355, -0.02208542637526989, 0.21998420357704163, 0.42227306962013245, -0.017207972705364227, 0.05376794934272766, 0.15802770853042603, -0.34980273246765137, 0.19316153228282928, -0.09243935346603394, -0.0897897258400917, -0.1576530784368515, -0.035980165004730225, -0.33788591623306274, 0.1505163162946701, 0.1197395846247673, 0.0502852164208889, 0.08803743869066238, 0.06608179956674576, -0.0036870043259114027, 0.2961447834968567, 0.060234881937503815, 0.008176222443580627], [0.2927040159702301, 0.20914822816848755, 0.26242274045944214, -0.13782601058483124, -0.08157259225845337, -0.30125167965888977, 0.28307676315307617, -0.10908195376396179, -0.19510550796985626, 0.39503374695777893, -0.20374701917171478, -0.3529548645019531, -0.32760417461395264, -0.11332117021083832, -0.029609836637973785, -0.002970505738630891, 0.08850397914648056, -0.4920268654823303, -0.21667996048927307, -0.012173239141702652, -0.6076293587684631, -0.27407336235046387, -0.18166103959083557, 0.1603919267654419, -0.1328318566083908, 0.16125105321407318, 0.6658236980438232, 0.3012935221195221, 0.09586252272129059, 0.18034420907497406, -0.17576178908348083, -0.07145801931619644, -0.12380553036928177, 0.12129273265600204, 0.22755111753940582], [-0.05636734887957573, -0.23429565131664276, -0.3249012529850006, -0.021004363894462585, 0.013703973963856697, -0.554722785949707, -0.11059221625328064, 0.012679445557296276, 0.15782862901687622, -0.055519379675388336, 0.3476898968219757, -0.11889614909887314, 0.1103547215461731, 0.5375896096229553, 0.15938907861709595, 0.40199393033981323, 0.0051376852206885815, -0.09459922462701797, 0.1737639456987381, 0.23543204367160797, -0.1757512241601944, -0.270783007144928, 0.0693911537528038, 0.24362078309059143, 0.27137207984924316, -0.29998692870140076, 0.06114208325743675, 0.3531472682952881, -0.14540047943592072, -0.05828486755490303, 0.24754507839679718, 0.05304707959294319, -0.07294708490371704, -0.03298065438866615, -0.046975165605545044], [0.29664871096611023, 0.5276093482971191, 0.3787984251976013, 0.036493439227342606, 0.004146553575992584, 0.1818583756685257, -0.25584328174591064, 0.06062376871705055, -0.14309161901474, -0.12882541120052338, 0.209016352891922, 0.198125422000885, -0.07436171174049377, -0.17372065782546997, 0.12784504890441895, -0.3546100854873657, -0.4299956262111664, -0.5164437890052795, -0.2090853601694107, -0.5269016623497009, 0.06019052863121033, -0.0026814392767846584, 0.12008138746023178, 0.3413999080657959, -0.05718301609158516, -0.16021911799907684, -0.6040558218955994, -0.5086525678634644, 0.28812703490257263, -0.11176156997680664, 0.006879501976072788, 0.19560696184635162, -0.0037804972380399704, -0.011016781441867352, 0.3364098370075226], [0.06566428393125534, -0.2002335488796234, 0.08302091062068939, 0.3127902150154114, 0.1311119794845581, -0.3299277722835541, -0.13942497968673706, -0.035329706966876984, -0.0994231253862381, 0.06519763171672821, -0.1351073831319809, -0.552352249622345, 0.1675052046775818, -0.033486537635326385, 0.11518903076648712, 0.1710858941078186, -0.0690666139125824, 0.266377329826355, 0.20926833152770996, 0.34428170323371887, -0.15860667824745178, 0.2121358960866928, 0.08119810372591019, 0.013223533518612385, -0.06262101233005524, 0.19710122048854828, -0.02950546145439148, -0.36382603645324707, -0.034823089838027954, -0.17059452831745148, 0.19825387001037598, 0.29697147011756897, -0.21564863622188568, -0.3005479872226715, -0.2926504909992218], [-0.15979386866092682, -0.29870155453681946, -0.13391752541065216, -0.2635631263256073, -0.037533845752477646, -0.08208309859037399, -0.20967774093151093, 0.1669130027294159, -0.2558946907520294, 0.11010134965181351, -0.15546652674674988, -0.1605103462934494, -0.48923367261886597, 0.3133523464202881, -0.1683516800403595, -0.14347168803215027, 0.22534672915935516, -0.28573617339134216, 0.27491486072540283, 0.24053476750850677, 0.41328975558280945, -0.1917538046836853, -0.045346833765506744, 0.1749441921710968, -0.2976301312446594, -0.2526785433292389, 0.2564905881881714, 0.2971135377883911, 0.032209932804107666, -0.03115377575159073, 0.34703898429870605, 0.22461353242397308, 0.38960424065589905, 0.36843469738960266, 0.13483941555023193], [0.12359457463026047, 0.25734949111938477, 0.10144304484128952, 0.21845118701457977, 0.1706613451242447, -0.2817792594432831, 0.07502928376197815, 0.1761114001274109, -0.6020711064338684, 0.2343074530363083, 0.11282698065042496, -0.08992353826761246, -0.01876416802406311, 0.7338053584098816, 0.01719878986477852, -0.3738352954387665, -0.060290347784757614, 0.3420619070529938, 0.17199119925498962, -0.12641914188861847, -0.1595197170972824, -0.2922913134098053, 0.04023699089884758, -0.0231421310454607, -0.23973239958286285, -0.03441071882843971, -0.2685796618461609, -0.10161162912845612, -0.21830354630947113, -0.27805280685424805, 0.024406416341662407, 0.05149777978658676, -0.04060438647866249, -0.19992542266845703, 0.3337384760379791], [0.36951667070388794, 0.23381543159484863, 0.5201563239097595, 0.0027089084032922983, 0.025402573868632317, -0.5759775042533875, 0.35918059945106506, -0.3033125400543213, -0.026882249861955643, 0.3111393451690674, 0.08014099299907684, 0.2982487976551056, -0.10041187703609467, -0.03994857519865036, 0.032188452780246735, 0.014447235502302647, -0.10858152061700821, 0.26106205582618713, 0.018912319093942642, 0.18132279813289642, 0.09882918745279312, 0.37347471714019775, -0.14920751750469208, 0.4405815005302429, -0.41303059458732605, -0.09332837909460068, 0.018504053354263306, -0.12329215556383133, -0.26330217719078064, -0.15049858391284943, 0.0936947613954544, 0.49465641379356384, -0.15934672951698303, 0.29549822211265564, -0.41745829582214355], [-0.006189285311847925, 0.11899367719888687, -0.013404008001089096, 0.021164309233427048, 0.03300659358501434, 0.19777488708496094, -0.0671992376446724, 0.3715174198150635, 0.6285156607627869, -0.23691588640213013, 0.12532205879688263, -0.039846863597631454, 0.04012009873986244, 0.15669189393520355, -0.11228964477777481, 0.09304864704608917, 0.20548008382320404, -0.2053220570087433, -0.12543846666812897, 0.06615797430276871, 0.08201124519109726, -0.05268150568008423, -0.14920547604560852, -0.34216153621673584, -0.044787533581256866, 0.14740562438964844, -0.3662691116333008, -0.2720702588558197, 0.19534683227539062, -0.19942007958889008, 0.3252556324005127, -0.04212009161710739, -0.49343806505203247, -0.1685008704662323, -0.03155704215168953], [0.34552815556526184, 0.09144877642393112, 0.060884393751621246, 0.1826627254486084, -0.5077923536300659, 0.1650582253932953, -0.12231326103210449, -0.40748530626296997, 0.1773199737071991, -0.2948452830314636, 0.1352497786283493, 0.09695436805486679, 0.08338505774736404, 0.2616352438926697, -0.416020929813385, -0.14339415729045868, -0.13117198646068573, -0.22563326358795166, -0.14995670318603516, 0.30400803685188293, -0.2372463047504425, -0.3510315716266632, -0.4316403269767761, 0.6678141355514526, -0.33248066902160645, -0.7279148101806641, 0.3913489580154419, -0.06872635334730148, -0.17670345306396484, 0.5155500173568726, -0.14427806437015533, 0.2088424265384674, -0.04773850366473198, 0.05823219195008278, 0.31006771326065063], [-0.5457404851913452, 0.041553348302841187, -0.16672679781913757, -0.30037161707878113, 0.1829022914171219, -0.16252242028713226, -0.049676306545734406, 0.24749284982681274, -0.04045199975371361, -0.1905796080827713, 0.38705742359161377, 0.02878609672188759, -0.1473652422428131, 0.12190911173820496, -0.05406899005174637, -0.46816956996917725, -0.30565711855888367, 0.06226478889584541, 0.4117356240749359, 0.2080438882112503, -0.4511251151561737, 0.01124294102191925, 0.17593815922737122, 0.0961470901966095, -0.06394190341234207, -0.47818446159362793, 0.42219433188438416, -0.3743545711040497, -0.16969464719295502, -0.6495527029037476, 0.049021825194358826, -0.06042666733264923, 0.19478315114974976, -0.08133500069379807, 0.2542009949684143], [0.22076788544654846, -0.17634139955043793, -0.2329956442117691, 0.12817612290382385, 0.05234970152378082, -0.5885035395622253, -0.5047003030776978, 0.2926258146762848, -0.012173137627542019, 0.05635399743914604, 0.2629794776439667, -0.49758440256118774, -0.1737886667251587, -0.10464850813150406, 0.48327723145484924, -0.07675418257713318, -0.06508432328701019, -0.19581641256809235, -0.11649924516677856, -0.2917974889278412, -0.08354471623897552, 0.017806898802518845, 0.024123547598719597, -0.39486604928970337, 0.3055688440799713, 0.21289056539535522, -0.16174569725990295, 0.5086829662322998, 0.023789899423718452, -0.07821421325206757, 0.13778533041477203, 0.10986531525850296, -0.23474173247814178, -0.349289208650589, -0.03900537267327309], [0.014227865263819695, -0.01508303266018629, 0.2457897812128067, 0.017987366765737534, 0.21662040054798126, -0.13785694539546967, 0.31289175152778625, -0.29606685042381287, -0.0019214580534026027, -0.24525777995586395, 0.07047495245933533, 0.24070604145526886, -0.05661093071103096, 0.05661354959011078, -0.07314971089363098, -0.025497648864984512, -0.10013172775506973, -0.01003419328480959, -0.22544722259044647, 0.133264422416687, 0.2935619354248047, 0.3863851726055145, -0.18268798291683197, 0.3138212263584137, 0.2760186195373535, 0.24357406795024872, 0.1058569848537445, -0.00659968564286828, 0.24626708030700684, 0.4232388436794281, -0.2226671576499939, -0.02617533877491951, -0.14012086391448975, -0.358161062002182, -0.1772260069847107], [0.023618221282958984, -0.08987791836261749, -0.2556200921535492, 0.101157046854496, -0.6556515693664551, 0.0591496005654335, -0.20845328271389008, -0.12925083935260773, 0.12293662130832672, -0.31492066383361816, 0.21634536981582642, 0.06995625793933868, -0.19600097835063934, -0.6530879139900208, -0.25470003485679626, 0.018190590664744377, -0.25661569833755493, -0.14327383041381836, 0.18433469533920288, -0.09698685258626938, 0.04822229593992233, -0.22901061177253723, 0.478247731924057, -0.027830367907881737, 0.0779496356844902, -0.07784591615200043, -0.1614774465560913, -0.11394178867340088, -0.019765838980674744, 0.03861960396170616, 0.515355110168457, -0.11752764880657196, 0.1264047473669052, -0.35491886734962463, 0.19642393290996552], [0.023308416828513145, 0.17277070879936218, 0.024168431758880615, 0.07412640750408173, 0.5478482842445374, -0.39666956663131714, 0.08647499233484268, -0.2614280581474304, -0.2580866515636444, 0.07903515547513962, -0.2208879441022873, 0.038098666816949844, 0.21684832870960236, 0.3097536563873291, 0.10964605957269669, 0.2360643446445465, -0.09408682584762573, -0.32588496804237366, -0.23742550611495972, 0.02489880844950676, -0.09574133902788162, 0.31994694471359253, 0.10206516832113266, 0.2575460970401764, -0.051742590963840485, -0.11170486360788345, 0.029214490205049515, 0.13005731999874115, 0.02578503079712391, 0.16979436576366425, -0.3623041808605194, -0.11027684807777405, -0.3305615484714508, -0.13177990913391113, 0.21636472642421722], [-0.49168965220451355, -0.0625043660402298, -0.10119906067848206, 0.582030713558197, -0.021600620821118355, -0.003691833233460784, 0.6945434808731079, -0.08605718612670898, 0.23038384318351746, 0.004231577273458242, 0.05918293073773384, 0.8700445294380188, -0.03418685495853424, 0.05715744569897652, 0.11701539158821106, 0.06425990909337997, 0.11232045292854309, -0.4960773289203644, -0.27243784070014954, -0.20318211615085602, 0.21810640394687653, 0.3913363516330719, -0.12594331800937653, 0.36920079588890076, 0.4986107647418976, 0.012384427711367607, 0.09539603441953659, 0.19671234488487244, -0.06699708849191666, 0.022534402087330818, -0.343445748090744, 0.3058658242225647, 0.25719642639160156, 0.14688722789287567, -0.30456802248954773], [-0.03854113817214966, -0.20801223814487457, 0.22928966581821442, -0.1613745242357254, 0.24334107339382172, -0.06430406868457794, 0.0507381297647953, -0.12889423966407776, 0.1220988929271698, -0.021156929433345795, 0.40253448486328125, -0.5327057242393494, -0.6300824284553528, -0.07910964637994766, 0.29641327261924744, 0.4644809365272522, 0.011641355231404305, 0.022344471886754036, -0.3555147051811218, 0.3765851855278015, 0.05438615009188652, -0.19436430931091309, 0.2979675531387329, 0.17491546273231506, 0.17270417511463165, 0.12075471132993698, 0.2231326848268509, 0.1720079630613327, -0.4605896770954132, -0.056954700499773026, 0.2095094919204712, -0.08039175719022751, -0.14302469789981842, 0.35918834805488586, -0.3182176649570465], [0.09330534189939499, -0.08518301695585251, 0.05865419656038284, -0.10245069116353989, -0.29377323389053345, 0.11635798215866089, -0.22493287920951843, 0.15139950811862946, 0.1593904048204422, -0.2190917581319809, -0.08024746179580688, 0.35189124941825867, -0.05495660752058029, 0.5447336435317993, -0.2868441045284271, 0.062236376106739044, 0.11783045530319214, -0.09544450044631958, -0.12233930081129074, 0.22500821948051453, -0.16250738501548767, 0.005548825953155756, 0.08714309334754944, -0.029943902045488358, -0.08943581581115723, -0.6468855142593384, 0.037983860820531845, 0.2410731464624405, -0.37782996892929077, -0.5117445588111877, 0.16311775147914886, -0.17702506482601166, -0.10445529222488403, -0.04795349761843681, 0.05613633245229721], [0.3836970031261444, 0.10705158859491348, 0.25956976413726807, -0.18169602751731873, 0.23116549849510193, -0.014013701118528843, -0.11711098253726959, 0.295672744512558, 0.08428046107292175, -0.1321442574262619, -0.14159972965717316, -0.06355419009923935, -0.28129297494888306, -0.16735555231571198, 0.1259305775165558, -0.14365604519844055, 0.3521628677845001, -0.14899024367332458, -0.011914859525859356, -0.20906561613082886, 0.015718743205070496, -0.2914028763771057, 0.056425947695970535, 0.3487596809864044, -0.4389006197452545, -0.3289249837398529, 0.7066280841827393, -0.2572016716003418, 0.1642400622367859, 0.07357854396104813, -0.2847490906715393, 0.4788612723350525, -0.1854955106973648, -0.2438005656003952, 0.09349021315574646], [-0.09876836091279984, -0.11978819966316223, -0.06392443180084229, -0.0814502090215683, -0.24506407976150513, -0.19492898881435394, 0.2569131553173065, 0.34908631443977356, -0.03468130901455879, -0.21629661321640015, -0.16386355459690094, 0.08225458860397339, -0.37941136956214905, 0.04540080204606056, 0.12314528971910477, -0.3963596224784851, -0.015812188386917114, 0.1919500082731247, 0.025685478001832962, -0.3066178262233734, 0.05822895094752312, 0.01400720700621605, -0.057739123702049255, 0.06864757835865021, 0.11782620847225189, -0.2055540680885315, -0.20648108422756195, -0.09514470398426056, -0.23942749202251434, -0.11005785316228867, 0.07967398315668106, 0.27581459283828735, 0.076081283390522, -0.2754409611225128, -0.056801166385412216], [-0.28652438521385193, -0.27883705496788025, -0.025532865896821022, -0.16312895715236664, -0.1468695104122162, 0.26620566844940186, 0.01949416846036911, -0.18838398158550262, 0.11782985925674438, 0.22986267507076263, -0.2267630696296692, 0.015124664641916752, -0.29509034752845764, 0.4104118049144745, 0.06620893627405167, 0.07158102840185165, 0.11476307362318039, 0.2080417275428772, 0.2717759311199188, -0.13445736467838287, 0.5871997475624084, 0.052510470151901245, 0.154110386967659, 0.23698383569717407, 0.25953397154808044, 0.1440485268831253, -0.42695683240890503, 0.18693019449710846, 0.26923081278800964, -0.17037111520767212, 0.2722693383693695, -0.5262752175331116, 0.5594756007194519, 0.19351202249526978, 0.1604120135307312], [-0.1604490876197815, 0.06680992990732193, -0.2710275650024414, 0.2930271029472351, 0.4687642455101013, -0.013889777474105358, -0.3914863169193268, -0.06367800384759903, 0.1352144181728363, 0.2855646014213562, -0.151740163564682, -0.03956082835793495, -0.005640446208417416, -0.07400607317686081, 0.1033930778503418, -0.0272029060870409, -0.09283273667097092, -0.0767093300819397, 0.1525527983903885, 0.06580933183431625, 0.24098041653633118, 0.12348106503486633, -0.06590675562620163, -0.5283365249633789, -0.11293818056583405, 0.668912947177887, -0.044008683413267136, -0.0991130992770195, 0.15466001629829407, -0.12168259173631668, -0.03197569400072098, -0.1993643343448639, 0.09268311411142349, 0.2972875237464905, -0.21910586953163147], [0.1697874367237091, 0.03003844991326332, -0.07618804275989532, 0.33122244477272034, -0.17848533391952515, -0.0026719169691205025, 0.290217787027359, -0.31588196754455566, -0.09268508106470108, -0.36691707372665405, -0.05031602084636688, -0.11272551864385605, 0.26849547028541565, -0.2347509264945984, 0.28034043312072754, 0.2763175964355469, -0.18042364716529846, -0.0852823331952095, -0.041544899344444275, 0.11227065324783325, 0.3383854329586029, 0.1869077980518341, 0.1446654051542282, 0.10224011540412903, 0.09650145471096039, -0.06808025389909744, -0.3217794597148895, 0.07824551314115524, 0.11692708730697632, 0.4594706594944, 0.5919873118400574, -0.5377299785614014, -0.20883910357952118, 0.4432312250137329, -0.42255792021751404], [0.1203332394361496, -0.07991855591535568, 0.0882566049695015, -0.20046038925647736, 0.09196478873491287, -0.2382928729057312, 0.00908476859331131, -0.26432573795318604, -0.16078737378120422, -0.2050407975912094, -0.34825387597084045, 0.049177754670381546, 0.0613255500793457, 0.06802455335855484, 0.21586774289608002, 0.09508617967367172, -0.14844472706317902, 0.09258629381656647, -0.0005536930984817445, 0.24202322959899902, -0.08161037415266037, -0.25534218549728394, -0.47629815340042114, -0.13914747536182404, -0.08284228295087814, -0.3540453016757965, -0.3885045349597931, 0.06066178157925606, 0.40095967054367065, 0.5886052250862122, -0.4054010212421417, -0.342160165309906, 0.2968881130218506, 0.20435863733291626, -0.12512098252773285], [-0.12793174386024475, -0.12238432466983795, 0.08115320652723312, -0.2162550389766693, 0.22454795241355896, -0.07985641062259674, 0.4732113480567932, 0.21800291538238525, -0.003437167266383767, -0.27863889932632446, -0.034294698387384415, -0.41988813877105713, -0.11675313860177994, 0.27570080757141113, -0.21557144820690155, -0.21642522513866425, -0.107526034116745, -0.30163025856018066, 0.10491598397493362, 0.16560098528862, -0.17855244874954224, -0.47232338786125183, -0.12179011106491089, 0.38698312640190125, -0.06801597774028778, 0.06629680097103119, -0.3032464385032654, 0.16709640622138977, -0.12017592042684555, -0.0043043168261647224, 0.21534518897533417, -0.7903053760528564, -0.12588325142860413, 0.18512585759162903, 0.03691284358501434], [0.14348962903022766, 0.05980571731925011, -0.2717995047569275, 0.12754929065704346, 0.1888732612133026, -0.1397962123155594, 0.20175738632678986, 0.4664568305015564, 0.4001105725765228, -0.23559518158435822, 0.24839986860752106, 0.18272648751735687, 0.0701284408569336, 0.15950702130794525, 0.06114182621240616, -0.12899725139141083, 0.03281112760305405, 0.07829461991786957, 0.28548797965049744, 0.2910422384738922, 0.05179473012685776, -0.018007921054959297, 0.28999394178390503, -0.015213815495371819, -0.653672456741333, 0.4497809112071991, -0.3541259169578552, -0.3899190425872803, 0.18056517839431763, -0.09672036021947861, 0.25406327843666077, -0.025950782001018524, 0.3488773703575134, 0.286725252866745, -0.022536011412739754], [-0.027742179110646248, -0.38292422890663147, 0.1102800965309143, -0.30822476744651794, -0.08211436122655869, -0.04399289935827255, -0.0449104942381382, -0.20370857417583466, -0.30521050095558167, -0.0064203692600131035, -0.1670737862586975, -0.09580037742853165, -0.16054317355155945, -0.29669421911239624, 0.019869478419423103, 0.2241821587085724, 0.5875551104545593, 0.12862777709960938, -0.004471750929951668, 0.11518799513578415, 0.05060729384422302, -0.05816534906625748, -0.1693027913570404, 0.028329189866781235, -0.0756542831659317, -0.09679707139730453, -0.25908327102661133, 0.19467176496982574, -0.33684977889060974, -0.3925253748893738, 0.3442288041114807, -0.3018656075000763, 0.20015645027160645, 0.12064894288778305, -0.29224923253059387], [0.2095327526330948, -0.3759441673755646, 0.3970852494239807, 0.14660295844078064, 0.07895930111408234, 0.3817402422428131, 0.3267492949962616, -0.08673085272312164, -0.3247826397418976, -0.4225599765777588, 0.36648207902908325, -0.25435203313827515, -0.1873987764120102, -0.22435501217842102, -0.04766176640987396, 0.3311476409435272, -0.2573906183242798, 0.23743905127048492, -0.1729414314031601, -0.34432321786880493, -0.26125577092170715, 0.05524681508541107, -0.11355485767126083, 0.18976697325706482, 0.1801643967628479, -0.3512677848339081, 0.06069692224264145, -0.0567854568362236, 0.5119802355766296, 0.107585608959198, -0.0028061314951628447, 0.023077191784977913, -0.6746053695678711, 0.2048889696598053, -0.48597219586372375], [-0.12395834177732468, -0.13597913086414337, 0.07444555312395096, 0.056642163544893265, 0.5830801129341125, -0.37558966875076294, 0.09764855355024338, 0.019977962598204613, 0.012257257476449013, -0.2675268352031708, 0.11946205049753189, -0.12450389564037323, -0.2617768347263336, -0.11711686849594116, -0.07212541252374649, 0.11058682948350906, -0.13436470925807953, -0.4596070647239685, -0.22510471940040588, -0.06151145324110985, 0.018292292952537537, -0.1480690985918045, -0.1034013107419014, -0.30838194489479065, -0.19248174130916595, 0.2571968734264374, -0.1738327592611313, 0.14412114024162292, 0.4062725305557251, 0.5257749557495117, -0.139089897274971, -0.38064801692962646, -0.18972237408161163, -0.01488096546381712, -0.1542942225933075], [-0.06056583672761917, -0.03563955798745155, 0.5081578493118286, -0.3682888150215149, -0.001671504694968462, -0.3931773900985718, 0.21826423704624176, 0.0856657326221466, 0.01685568131506443, -0.28049612045288086, 0.2398548424243927, 0.28536221385002136, -0.42436301708221436, -0.13126200437545776, -0.10448650270700455, 0.08786366879940033, -0.042437952011823654, -0.23737403750419617, -0.338473379611969, 0.2690766453742981, 0.22119471430778503, -0.03394688665866852, -0.3759160041809082, 0.2614937722682953, -0.002872270066291094, 0.2449408918619156, -0.028203563764691353, 0.16794070601463318, 0.11244840174913406, -0.03227672725915909, 0.0964784324169159, 0.0448220819234848, 0.2312125712633133, -0.3115551769733429, 0.17784126102924347], [-0.0955047458410263, 0.08310159295797348, -0.22646866738796234, 0.3372769355773926, -0.008471176028251648, 0.32382601499557495, 0.0722956508398056, -0.26683634519577026, 0.011320601217448711, 0.09127290546894073, -0.1891116052865982, -0.11202573031187057, -0.04592468962073326, 0.09131783246994019, 0.371332585811615, 0.12229160964488983, 0.1632796823978424, -0.2195901721715927, 0.1923997402191162, -0.05944645777344704, 0.05299205332994461, 0.43721213936805725, -0.4188949763774872, 0.6252400875091553, -0.12080767750740051, -0.36350134015083313, 0.3164491355419159, 0.3498506546020508, 0.10254514962434769, -0.6124644875526428, 0.2194105088710785, -0.08963340520858765, 0.01665743812918663, -0.13939261436462402, 0.27189308404922485], [-0.2765246331691742, 0.4265732765197754, -0.34114789962768555, 0.4019497334957123, 0.234933003783226, -0.0661611557006836, -0.24040484428405762, 0.10552656650543213, 0.0376090407371521, -0.10139764100313187, 0.14759930968284607, 0.04897572472691536, 0.062254101037979126, 0.06907950341701508, -0.1785406470298767, -0.07563099265098572, 0.08377488702535629, -0.02516767382621765, 0.17102274298667908, 0.10169745981693268, 0.14743682742118835, 0.1017943024635315, -0.12848447263240814, 0.008091997355222702, 0.11896127462387085, 0.19825425744056702, -0.17241765558719635, 0.27283021807670593, 0.3776698410511017, 0.14753559231758118, 0.1954456865787506, 0.305327445268631, -0.2567504644393921, 0.033057279884815216, 0.22859039902687073], [0.09321825951337814, 0.22717073559761047, -0.30974429845809937, -0.12394209206104279, 0.265808641910553, -0.19086241722106934, -0.14787892997264862, -0.1476164311170578, -0.04184998199343681, -0.1899806559085846, -0.3158867657184601, -0.2121383398771286, 0.042427316308021545, -0.4928750991821289, -0.2869146764278412, 0.2768395245075226, 0.4089098572731018, 0.12251543998718262, 0.13132521510124207, -0.13256627321243286, 0.15465110540390015, -0.0648861974477768, 0.05476460978388786, 0.3838180601596832, -0.08669483661651611, 0.293694406747818, -0.061882421374320984, 0.26877379417419434, -0.05637409910559654, 0.38849198818206787, 0.22955721616744995, 0.33523857593536377, -0.09949824959039688, 0.007778475992381573, -0.20344841480255127], [0.04927721247076988, 0.0025841891765594482, 0.34502384066581726, -0.10180310904979706, 0.2674081325531006, 0.22188927233219147, 0.21484452486038208, -0.09187298268079758, 0.3307121694087982, 0.11565748602151871, 0.15143921971321106, 0.137947216629982, -0.04762799292802811, 0.1672501564025879, -0.04191310331225395, -0.26072952151298523, -0.5681034922599792, 0.29947996139526367, 0.029607029631733894, -0.2702886760234833, -0.0426514707505703, -0.03881796449422836, 0.08951619267463684, -0.13392673432826996, -0.14193636178970337, 0.3930327594280243, 0.17481759190559387, 0.3341158628463745, -0.13677005469799042, -0.39934486150741577, -0.2505273222923279, 0.21723733842372894, -0.5622849464416504, 0.5023068785667419, -0.3092397153377533], [0.02773909829556942, 0.03370332345366478, 0.12093525379896164, 0.04668830335140228, 0.14977970719337463, -0.13217303156852722, -0.03948564454913139, 0.11482780426740646, -0.38273221254348755, -0.12106197327375412, 0.02703101746737957, 0.15060162544250488, -0.2240385264158249, -0.08451303094625473, 0.028262805193662643, -0.12821848690509796, -0.5596494674682617, -0.17631269991397858, 0.38699716329574585, -0.021617451682686806, -0.12654481828212738, -0.01561364158987999, -0.10190553963184357, -0.29779335856437683, 0.31606513261795044, 0.048216041177511215, -0.42900848388671875, 0.060798853635787964, 0.26531824469566345, 0.031212635338306427, -0.01606491580605507, -0.10851581394672394, -0.008389127440750599, 0.05451790988445282, 0.12880674004554749], [0.03470759093761444, -0.19347307085990906, 0.03925887122750282, 0.01218627579510212, -0.3396085202693939, 0.37465763092041016, -0.0841449722647667, -0.029151011258363724, -0.25976070761680603, -0.16335166990756989, 0.09920289367437363, 0.3850666284561157, 0.18384946882724762, 0.29631876945495605, 0.20962797105312347, -0.2952609360218048, -0.10949293524026871, -0.16398730874061584, -0.08849147707223892, 0.039265625178813934, -0.26589593291282654, 0.36500388383865356, -0.024502016603946686, -0.0007714981329627335, 0.2352571040391922, 0.003713194979354739, -0.6008391976356506, -0.04596054553985596, 0.021823283284902573, 0.14348243176937103, -0.21437637507915497, 0.47275152802467346, 0.4866376519203186, 0.324453741312027, 0.10981626808643341], [-0.29008880257606506, 0.01650315895676613, 0.032281361520290375, 0.13156349956989288, 0.3314288258552551, 0.11953794956207275, -0.2511619031429291, -0.10170624405145645, -0.07056388258934021, 0.36159995198249817, -0.2967894375324249, -0.05594543740153313, -0.25377702713012695, 0.11192694306373596, 0.1156020537018776, 0.06994587928056717, 0.26626530289649963, 0.2878071963787079, 0.20593221485614777, -0.17540092766284943, 0.4125785529613495, -0.050709277391433716, 0.2609982490539551, 0.1703757345676422, -0.11329171061515808, 0.3275386095046997, 0.06398604065179825, 0.1448308527469635, 0.04698469489812851, -0.03563656285405159, -0.038531068712472916, -0.4665634334087372, 0.17325487732887268, -0.052965179085731506, 0.08893284201622009], [-0.09335261583328247, -0.06865077465772629, -0.2836989462375641, 0.4468125104904175, -0.3572358787059784, -0.04930310323834419, 0.08507024496793747, -0.04345163702964783, -0.3902961015701294, 0.3619839549064636, -0.18997561931610107, 0.21249818801879883, 0.20298661291599274, 0.4149557948112488, -0.15620936453342438, 0.3315644860267639, -0.29259052872657776, 0.08553735911846161, -0.020344730466604233, -0.053153105080127716, -0.03839612007141113, 0.11503113061189651, 0.03205905482172966, 0.013726634904742241, 0.12182309478521347, -0.2949220836162567, 0.13683472573757172, 0.1873590499162674, -0.21250973641872406, -0.23534227907657623, 0.3238300681114197, -0.2882247269153595, 0.5053502321243286, -0.08762143552303314, -0.4591294527053833], [0.00643939571455121, 0.13436375558376312, 0.5975775718688965, -0.05773136764764786, 0.0806308314204216, 0.5084657669067383, 0.4760487973690033, -0.006902280729264021, -0.04770778864622116, -0.35652583837509155, 0.12739114463329315, -0.011887353844940662, -0.21326743066310883, 0.05836069583892822, 0.5010813474655151, -0.279755562543869, -0.7292705774307251, 0.28629958629608154, -0.11584189534187317, -0.222787544131279, 0.01653711125254631, -0.12346809357404709, -0.23820485174655914, 0.02505025640130043, 0.10765507072210312, 0.1931661069393158, 0.4726632237434387, -0.11402398347854614, -0.3484009802341461, 0.29038503766059875, 0.015149068087339401, -0.05741667374968529, 0.2021525502204895, -0.33677494525909424, -0.22336187958717346], [-0.21220867335796356, -0.19948741793632507, -0.015503613278269768, -0.20034679770469666, -0.17470787465572357, -0.1271679699420929, -0.2192045897245407, -0.06542838364839554, 0.37266162037849426, 0.14584578573703766, -0.220760315656662, 0.31629568338394165, -0.19855186343193054, 0.26213306188583374, 0.02426123060286045, -0.590736448764801, 0.12763743102550507, 0.023426799103617668, 0.1659272164106369, 0.26955288648605347, -0.11953452974557877, 0.26204511523246765, -0.10351783037185669, -0.035238370299339294, 0.1654270440340042, -0.21788613498210907, 0.021036645397543907, 0.0989333987236023, 0.049374714493751526, -0.11092855036258698, 0.643571674823761, 0.5351911783218384, 0.16956597566604614, -0.16477441787719727, -0.0006466674385592341], [-0.1171758770942688, 0.042118679732084274, 0.03882556036114693, -0.3971517086029053, -0.03714791685342789, 0.098380446434021, -0.027278264984488487, -0.04749737307429314, -0.007237451616674662, 0.2759894132614136, 0.13953842222690582, -0.23655594885349274, -0.4011893570423126, 0.06155464053153992, 0.3874008357524872, 0.009224419482052326, -0.046366725116968155, -0.28732722997665405, 0.06721284985542297, -0.05608240142464638, 0.7359151840209961, 0.11731322109699249, 0.20873956382274628, -0.30896610021591187, -0.3764045238494873, 0.25159743428230286, 0.13564714789390564, -0.015926353633403778, 0.07422541081905365, -0.31713518500328064, 0.021682681515812874, -0.24580644071102142, 0.4164791703224182, 0.1614772528409958, 0.07620121538639069], [0.136885404586792, 0.4154447019100189, 0.15295995771884918, -0.21016183495521545, 0.022840572521090508, 0.05927393212914467, 0.309831827878952, 0.38170531392097473, 0.041272055357694626, -0.22035463154315948, -0.3507993221282959, 0.1853538453578949, -0.08730362355709076, 0.07080899924039841, -0.03904006630182266, 0.24215076863765717, -0.22123414278030396, -0.29415586590766907, 0.10849776864051819, 0.30181875824928284, -0.25863736867904663, 0.3023751974105835, 0.3530852496623993, 0.19245445728302002, 0.27562466263771057, -0.072907954454422, -0.013908999040722847, -0.20682720839977264, -0.14213740825653076, -0.5004041790962219, 0.043055057525634766, -0.016203498467803, 0.0799081027507782, -0.03589211776852608, 0.1282617449760437], [0.4757270812988281, 0.031438350677490234, 0.1191241443157196, -0.006129366345703602, 0.06964514404535294, 0.2641391456127167, 0.0216764435172081, 0.14879855513572693, -0.3011697828769684, 0.1561761051416397, 0.18242929875850677, -0.08678194880485535, 0.22890226542949677, 0.3612489104270935, 0.03241712972521782, 0.03188253566622734, -0.25558435916900635, -0.40767449140548706, 0.05247240513563156, 0.3606381118297577, -0.07851332426071167, -0.005261458922177553, -0.22917449474334717, 0.07146643847227097, -0.15947102010250092, 0.351677268743515, 0.0917857438325882, 0.2934439480304718, 0.3753541111946106, 0.2975292503833771, 0.02254909835755825, -0.34991589188575745, -0.07359157502651215, 0.201895073056221, -0.036025915294885635], [0.09233127534389496, 0.12219221144914627, -0.06884267926216125, 0.3588647246360779, 0.025447379797697067, 0.31735673546791077, 0.08704410493373871, -0.09844235330820084, -0.1937279999256134, 0.23801065981388092, -0.32252421975135803, -0.035761844366788864, 0.14779847860336304, 0.44324803352355957, 0.09694711863994598, -0.0013545443071052432, -0.16980329155921936, 0.12600818276405334, 0.02232278883457184, -0.08076733350753784, 0.13262887299060822, 0.17521066963672638, 0.04971158877015114, 0.13747219741344452, -0.061618294566869736, 0.22539812326431274, 0.352064311504364, -0.04286855831742287, -0.1934218853712082, 0.055376339703798294, -0.03554703667759895, 0.17594732344150543, 0.23138731718063354, 0.11322596669197083, 0.022906601428985596], [0.0382397323846817, 0.14546464383602142, -0.14719438552856445, -0.17430312931537628, 0.32918834686279297, -0.054725781083106995, -0.2941988408565521, 0.11374883353710175, -0.15234199166297913, -0.17574577033519745, 0.13128690421581268, 0.040453169494867325, 0.24483533203601837, 0.10623663663864136, 0.4169919192790985, 0.06656097620725632, 0.05074901133775711, 0.2664589583873749, 0.6180692911148071, -0.27163317799568176, 0.16215519607067108, -0.601489245891571, 0.21321624517440796, 0.42958977818489075, 0.6511899828910828, -0.34593528509140015, -0.453620970249176, 0.5137375593185425, -0.4493354260921478, 0.009633960202336311, -0.0390203520655632, 0.13877876102924347, 0.27735409140586853, -0.07136303931474686, 0.011220459826290607], [0.01365585159510374, -0.08263415843248367, 0.0777454674243927, 0.1135808676481247, 0.3090195953845978, -0.10992083698511124, 0.017261790111660957, 0.000897467602044344, -0.03149963542819023, -0.25227582454681396, 0.1452074944972992, 0.029825925827026367, 0.12622858583927155, -0.3739650845527649, 0.21943598985671997, -0.34031060338020325, -0.21564938127994537, 0.48462560772895813, 0.22673550248146057, -0.47206833958625793, 0.16352862119674683, 0.12057213485240936, -0.27566707134246826, -0.31980016827583313, -0.056013595312833786, 0.39843425154685974, -0.03442530706524849, -0.4270165264606476, 0.027302777394652367, -0.1920621246099472, 0.2822679579257965, 0.24785608053207397, -0.2516695261001587, 0.3731509745121002, 0.1714833378791809], [-0.4071126878261566, 0.10391902923583984, 0.37536394596099854, 0.010390481911599636, -0.14249849319458008, 0.10994865000247955, -0.09879058599472046, 0.31476473808288574, 0.3847958743572235, 0.2916162610054016, -0.1838732659816742, 0.005553741008043289, -0.2687920928001404, -0.13276955485343933, 0.18685415387153625, 0.06661016494035721, 0.14938612282276154, 0.23624061048030853, 0.18968914449214935, -0.2997627556324005, 0.4170311391353607, 0.12341305613517761, -0.08180306106805801, 0.04948979243636131, -0.10546495765447617, 0.49264881014823914, 0.6533984541893005, -0.10359044373035431, 0.05793238803744316, -0.1756976991891861, 0.1184391900897026, -0.04957475885748863, -0.15370282530784607, -0.23533786833286285, 0.10559947043657303], [0.06757723540067673, 0.09108493477106094, 0.29735255241394043, 0.24807122349739075, 0.23023268580436707, -0.14441967010498047, 0.2819410562515259, 0.12245696783065796, 0.11856561154127121, 0.01606685109436512, 0.09593519568443298, -0.010343034751713276, -0.047995712608098984, -0.03599540889263153, -0.17585450410842896, -0.3065906763076782, -0.6657422780990601, 0.24076730012893677, 0.050391048192977905, -0.33932024240493774, 0.171027272939682, 0.12638899683952332, -0.4387577474117279, -0.38771137595176697, -0.5172483325004578, 0.29769614338874817, 0.06407438218593597, -0.03284696117043495, 0.1852630078792572, -0.2453863024711609, -0.16125255823135376, -0.19238509237766266, 0.004069869872182608, 0.2540198564529419, -0.015316317789256573], [0.020261822268366814, 0.07506212592124939, 0.381753534078598, 0.5904136300086975, 0.255810409784317, 0.46121907234191895, 0.2805772125720978, -0.054870203137397766, -0.2726242244243622, 0.14372988045215607, 0.03799840435385704, 0.368613600730896, -0.17095156013965607, -0.12359229475259781, -0.14127357304096222, 0.5127801895141602, -0.20214077830314636, -0.2118433713912964, 0.3093128204345703, 0.31217849254608154, -0.1783342957496643, -0.1278737187385559, -0.42310553789138794, -0.33706414699554443, 0.36674734950065613, -0.07735263556241989, 0.48319071531295776, 0.2629500925540924, -0.13577894866466522, -0.120878666639328, -0.18113255500793457, -0.3206368088722229, 0.13126632571220398, -0.07346877455711365, -0.08891647309064865], [0.5872848629951477, -0.16894084215164185, -0.04546216502785683, -0.10624288022518158, -0.40473321080207825, 0.007301222532987595, 0.5706987380981445, 0.10119155794382095, 0.058118194341659546, 0.04605425149202347, -0.12770068645477295, 0.21634197235107422, 0.3152885138988495, -0.2570054829120636, 0.05038633942604065, 0.11872830986976624, -0.26376017928123474, -0.2922433316707611, 0.12449993193149567, 0.027907414361834526, -0.09691283851861954, -0.20569823682308197, 0.056031808257102966, -0.14371822774410248, -0.39475032687187195, -0.1956004798412323, -0.17134912312030792, 0.09586993604898453, 0.38645437359809875, -0.33860448002815247, -0.13855180144309998, -0.01194948609918356, 0.20069807767868042, 0.1932489573955536, 0.021478308364748955], [-0.07943481206893921, -0.025588350370526314, -0.3809475898742676, -0.17723608016967773, 0.14727117121219635, -0.10224930197000504, 0.11682866513729095, -0.42152440547943115, 0.08375860005617142, 0.1246451586484909, -0.26553890109062195, 0.17792747914791107, -0.2709823548793793, 0.15772856771945953, 0.2910325527191162, -0.05736113339662552, -0.023740103468298912, 0.17978176474571228, 0.02198455110192299, 0.06543680280447006, 0.0748148187994957, -0.15998156368732452, -0.0456281378865242, -0.11307848244905472, -0.18491964042186737, 0.01469460129737854, -0.0646054595708847, 0.05974533408880234, 0.436550110578537, -0.2937737703323364, 0.0415043942630291, -0.20414939522743225, -0.3784855008125305, 0.27592262625694275, 0.08025160431861877], [0.058756258338689804, 0.06517872214317322, -0.23838794231414795, 0.24541857838630676, 0.22835959494113922, 0.04745776206254959, 0.0010747360065579414, -0.25518035888671875, 0.2714793384075165, -0.41961127519607544, -0.3621826171875, -0.006919234059751034, 0.10859588533639908, 0.5795494914054871, -0.08706556260585785, -0.17574912309646606, -0.1682107001543045, 0.12769116461277008, -0.12131568044424057, -0.520002543926239, 0.39319905638694763, 0.33092132210731506, 0.0236844290047884, -0.08375216275453568, -0.07556862384080887, -0.12210593372583389, -0.07838435471057892, -0.2983492910861969, 0.00782795436680317, -0.1980297565460205, 0.3287241756916046, -0.3203132450580597, 0.4656778573989868, -0.07714338600635529, 0.015803713351488113], [-0.014143566600978374, 0.35518014430999756, -0.09346242249011993, 0.1467600166797638, -0.08632464706897736, -0.3528198301792145, -0.02099347673356533, -0.2942308187484741, 0.33824434876441956, 0.2096083015203476, 0.14284919202327728, -0.20087873935699463, 0.16266445815563202, 0.159103661775589, 0.22140343487262726, -0.03729382902383804, 0.23056043684482574, -0.010751292109489441, 0.011158224195241928, -0.365085244178772, -0.29428085684776306, -0.14750166237354279, 0.06135676056146622, -0.02320948801934719, 0.3871127963066101, 0.3354087471961975, -0.48985904455184937, -0.2861086130142212, 0.22889606654644012, 0.10903163254261017, -0.29750826954841614, -0.15440861880779266, -0.18792274594306946, -0.5397317409515381, 0.06514691561460495], [-0.262954443693161, 0.27941080927848816, 0.2694949805736542, 0.4054715633392334, 0.28140968084335327, -0.2578147351741791, -0.06971674412488937, 0.03029981441795826, -0.28030315041542053, 0.21443910896778107, -0.3979361951351166, 0.24145956337451935, 0.45540282130241394, -0.4058004319667816, 0.2719669044017792, -0.10077337920665741, -0.4039268493652344, 0.03474142402410507, -0.7188339233398438, 0.19309939444065094, 0.3867766857147217, 0.5167557597160339, -0.20711523294448853, 0.17793339490890503, 0.22713947296142578, 0.09908273816108704, -0.19067704677581787, 0.04703645408153534, -0.22396866977214813, -0.03390389308333397, -0.029439153149724007, -0.11936409026384354, -0.10574735701084137, 0.015435675159096718, 0.2727660834789276], [0.30464884638786316, 0.48856669664382935, -0.3910752236843109, 0.10606122761964798, -0.0007735587423667312, 0.31525540351867676, 0.0002889061579480767, 0.4255857765674591, -0.22917276620864868, -0.08124234527349472, 0.09218032658100128, 0.25879257917404175, -0.15065540373325348, 0.2016783058643341, -0.22749246656894684, 0.2149433195590973, 0.021663684397935867, 0.09104309976100922, 0.06969579309225082, 0.04328542947769165, 0.03079553321003914, 0.1790139228105545, -0.0368751622736454, 0.05656852945685387, -0.11586894094944, -0.7509490251541138, -0.3442747890949249, -0.30596908926963806, 0.1610502004623413, 0.22594043612480164, 0.029177458956837654, -0.2748655378818512, -0.2204071581363678, 0.26852378249168396, 0.09556763619184494], [0.21334020793437958, -0.1617213636636734, 0.24053740501403809, -0.08728661388158798, 0.0822647288441658, -0.12021277844905853, -0.020952174440026283, 0.5624127984046936, -0.26624223589897156, -0.01025744341313839, -0.05352771282196045, 0.3342095911502838, 0.1343366503715515, -0.016683680936694145, -0.25275906920433044, -0.05800476297736168, 0.10160833597183228, 0.3339044451713562, -0.1468447595834732, -0.01835540309548378, 0.1547190397977829, -0.3791494071483612, -0.4373568296432495, -0.4929986894130707, 0.031795796006917953, 0.13569219410419464, 0.08971377462148666, -0.11802121251821518, 0.2374105304479599, 0.27547648549079895, -0.3575473725795746, 0.06325321644544601, 0.657404899597168, 0.10762091726064682, -0.15440383553504944], [0.25811025500297546, 0.24206191301345825, -0.07200846821069717, 0.1555318832397461, -0.05468802526593208, -0.27848246693611145, 0.06993169337511063, 0.2888055741786957, -0.05789835751056671, -0.4362261891365051, 0.26531925797462463, -0.13868650794029236, 0.4887928366661072, -0.2569553256034851, -0.10298898071050644, -0.25256893038749695, 0.3909217417240143, 0.3549145460128784, 0.29935121536254883, 0.22324202954769135, -0.09338101744651794, -0.022943632677197456, 0.313212513923645, 0.31502702832221985, -0.2701185643672943, -0.15268272161483765, 0.2602127492427826, 0.13154670596122742, 0.18375158309936523, 0.24164773523807526, -0.16830365359783173, -0.0004511407169047743, 0.11149799823760986, 0.16521845757961273, 0.24812838435173035], [-0.16115997731685638, 0.13379883766174316, -0.20738713443279266, 0.2370275855064392, -0.02133563905954361, 0.13940951228141785, 0.2945117950439453, 0.1055961549282074, 0.08501312881708145, 0.02674986608326435, -0.14401230216026306, -0.05739356577396393, -0.11799923330545425, -0.14256954193115234, -0.04891828075051308, 0.33361268043518066, -0.08395900577306747, 0.060608893632888794, 0.07307058572769165, 0.36078739166259766, -0.24779829382896423, 0.030489351600408554, -0.3541015386581421, -0.25448867678642273, 0.044194284826517105, 0.07154953479766846, 0.13888148963451385, -0.25888511538505554, 0.0673670768737793, -0.0014404082903638482, -0.05287422612309456, -0.1276102066040039, -0.23180773854255676, -0.4107283651828766, -0.3649076521396637], [0.30681756138801575, 0.45716238021850586, -0.23664426803588867, 0.21581526100635529, -0.2707460820674896, 0.2859492003917694, -0.17474998533725739, -0.4414314031600952, 0.22959335148334503, 0.12531150877475739, -0.012506414204835892, -0.34879520535469055, -0.3791545331478119, -0.07620846480131149, -0.08581055700778961, 0.045669641345739365, 0.11728820204734802, 0.22119447588920593, -0.32181695103645325, -0.05099736526608467, 0.17496803402900696, -0.5951738357543945, 0.0008264543721452355, 0.09186629205942154, -0.008936922065913677, -0.18795432150363922, 0.16926397383213043, 0.38965117931365967, -0.7520055174827576, 0.04249871149659157, -0.22137732803821564, 0.016860531643033028, 0.17996665835380554, -0.16859368979930878, -0.21812663972377777], [-0.3419319689273834, -0.16968271136283875, -0.3781786561012268, 0.12623728811740875, -0.32060861587524414, 0.17554017901420593, 0.2333974689245224, -0.1280113011598587, -0.014212324284017086, -0.03141777962446213, 0.15267787873744965, -0.09915311634540558, -0.4386483430862427, -0.4715408980846405, 0.27699795365333557, 0.15764470398426056, -0.4496806263923645, 0.08406483381986618, 0.0038446756079792976, 0.022992750629782677, 0.18477478623390198, 0.35904839634895325, -0.30361485481262207, 0.01582453027367592, 0.2433929741382599, 0.23292075097560883, -0.027440832927823067, 0.27475371956825256, -0.02111375890672207, -0.26470598578453064, 0.07216283679008484, -0.2129587084054947, 0.18819069862365723, 0.08956003189086914, 0.0682956799864769], [0.13236764073371887, -0.18655240535736084, 0.24658721685409546, 0.22005495429039001, 0.3967290222644806, 0.23773053288459778, 0.42113763093948364, -0.17928197979927063, -0.12184765189886093, 0.2755356729030609, 0.09197712689638138, 0.2768290340900421, 0.14367777109146118, -0.08669228106737137, 0.11272425949573517, -0.13392843306064606, -0.5219879746437073, -0.18539248406887054, -0.1793878823518753, 0.030998332425951958, 0.3405841290950775, 0.1764562427997589, 0.1375470608472824, -0.017803078517317772, 0.24448083341121674, 0.293448269367218, 0.3709416091442108, -0.37021297216415405, -0.21804670989513397, 0.2645469605922699, -0.13069234788417816, 0.014965313486754894, -0.03139832243323326, 0.23467199504375458, 0.10801666229963303], [0.5452509522438049, -0.11394267529249191, 0.0724661648273468, 0.24035756289958954, -0.22000505030155182, -0.158546581864357, -0.19307105243206024, -0.21200834214687347, 0.05678536370396614, -0.04265928268432617, 0.1106882244348526, -0.06712948530912399, -0.4968455731868744, -0.06751962751150131, 0.03784967586398125, 0.07837951183319092, 0.2500792443752289, 0.1546967625617981, 0.19829437136650085, 0.5737392902374268, -0.09560850262641907, -0.008658051490783691, -0.07894714921712875, 0.36894500255584717, 0.10485740005970001, 0.057479266077280045, 0.1631118357181549, -0.21231479942798615, -0.16452962160110474, 0.3607655465602875, -0.1108434796333313, 0.1054084524512291, 0.24154506623744965, 0.2894376516342163, -0.21639201045036316], [-0.3030007779598236, -0.5637263655662537, -0.15418310463428497, 0.3798627257347107, -0.23843148350715637, -0.33585962653160095, -0.45635372400283813, 0.00012475973926484585, -0.1917537897825241, 0.27505186200141907, 0.12357885390520096, 0.17055892944335938, -0.12637628614902496, -0.6606819033622742, -0.2323133498430252, 0.22094307839870453, 0.008237381465733051, -0.24067620933055878, -0.007314400747418404, -0.4829801321029663, -0.13805730640888214, -0.10640116035938263, -0.09689074754714966, 0.1627509593963623, -0.11101899296045303, -0.13859719038009644, -0.08955871313810349, -0.5240448117256165, -0.09192357212305069, 0.2539213001728058, -0.012593025341629982, -0.427300363779068, -0.25347304344177246, -0.03656073659658432, -0.06249736621975899], [-0.20469793677330017, -0.26549023389816284, -0.3548872172832489, 0.13937832415103912, -0.5707795023918152, 0.33651384711265564, -0.07196163386106491, -0.11463498324155807, 0.48102521896362305, -0.24332647025585175, -0.22068433463573456, 0.045367248356342316, 0.0012292048195376992, 0.697862446308136, -0.25164881348609924, -0.4259113073348999, 0.3101774752140045, 0.2641710937023163, 0.20462137460708618, 0.18778075277805328, -0.4523394703865051, -0.33320873975753784, 0.16983819007873535, -0.08925498276948929, 0.10703200846910477, -0.13860850036144257, -0.1382683366537094, -0.1433584988117218, -0.1840488463640213, 0.45060160756111145, 0.494590699672699, 0.19186550378799438, -0.027386756613850594, 0.08082789182662964, -0.06647465378046036], [-0.08907611668109894, -0.28618302941322327, -0.0907151997089386, -0.050298333168029785, -0.06776885688304901, -0.009296688251197338, 0.3671981394290924, -0.48943307995796204, -0.3647192716598511, 0.01783091016113758, 0.2194763422012329, 0.10598234087228775, -0.021245872601866722, 0.36709073185920715, 0.16360069811344147, 0.6127463579177856, -0.28355830907821655, -0.28232017159461975, -0.19224286079406738, -0.020606717094779015, 0.09958352893590927, -0.2590949237346649, -0.061775390058755875, 0.5379393100738525, -0.022266997024416924, -0.046954598277807236, 0.05874641239643097, 0.18421167135238647, -0.18606801331043243, -0.3926488757133484, 0.33214500546455383, -0.25549471378326416, -0.4065453112125397, 0.06737925112247467, -0.05621407553553581], [-0.09696988016366959, 0.08803708106279373, 0.39616844058036804, 0.054489683359861374, -0.4303434193134308, -0.06473112106323242, 0.026474324986338615, 0.1681067943572998, 0.05080494284629822, 0.03509189933538437, 0.08737502992153168, -0.2834510803222656, 0.1529768854379654, -0.19532665610313416, -0.4589221179485321, 0.37053221464157104, 0.13013334572315216, 0.10724420845508575, -0.04649248346686363, 0.1490706205368042, 0.0751529261469841, 0.30321377515792847, 0.2102942317724228, 0.05064496397972107, -0.20999635756015778, -0.25308001041412354, -0.08499078452587128, -0.14072085916996002, -0.24373911321163177, -0.2535586655139923, -0.43433505296707153, -0.00970378890633583, -0.4970223307609558, -0.16289594769477844, 0.1672840714454651], [-0.3589129149913788, 0.08027002960443497, -0.1105189397931099, 0.22394607961177826, 0.3503395617008209, 0.276888370513916, -0.28959548473358154, -0.2900005877017975, 0.4045823812484741, 0.01232412364333868, -0.24065370857715607, 0.050908491015434265, 0.0469290129840374, -0.011627208441495895, 0.23662668466567993, -0.10316915810108185, 0.47198057174682617, -0.298833966255188, -0.26252904534339905, -0.20690278708934784, -0.2313818484544754, -0.3785981833934784, -0.268989235162735, -0.011668020859360695, -0.04321247711777687, 0.2312440127134323, 0.18841534852981567, 0.059298306703567505, -0.21051645278930664, 0.20011183619499207, 0.14390520751476288, 0.1920708864927292, 0.43260452151298523, -0.3909423053264618, 0.1320149153470993], [-0.012938633561134338, 0.413444846868515, -0.3307723104953766, -0.2827403247356415, 0.26691341400146484, 0.03504318371415138, -0.0038602491840720177, -0.04939676448702812, -0.05595751851797104, -0.054542165249586105, 0.022905319929122925, -0.6818360686302185, 0.24744626879692078, -0.2872350215911865, 0.0036109101492911577, -0.22277501225471497, 0.11046556383371353, 0.07590223103761673, 0.22772906720638275, -0.11062897741794586, -0.028117459267377853, -0.6154192090034485, -0.24926798045635223, 0.33579063415527344, 0.08643139153718948, 0.16121727228164673, -0.20013289153575897, -0.4075290858745575, 0.22618162631988525, 0.014464960433542728, -0.09426049888134003, 0.22166123986244202, 0.2895728349685669, 0.11852921545505524, -0.07224468886852264], [-0.20861105620861053, 0.23661480844020844, -0.026781778782606125, 0.07011142373085022, -0.21916413307189941, 0.08299611508846283, 0.1746012568473816, 0.449503093957901, -0.06549009680747986, -0.03413690626621246, 0.003426345530897379, -0.028302352875471115, -0.19112564623355865, 0.5234187245368958, 0.7771018743515015, 0.07699581235647202, 0.13119614124298096, 0.00928910356014967, 0.1309278905391693, 0.13462574779987335, -0.14327476918697357, -0.1490803062915802, 0.10970573127269745, 0.2033863365650177, 0.24502381682395935, 0.273939311504364, -0.2334081083536148, 0.13759270310401917, -0.1622168868780136, 0.3741435706615448, -0.004821227863430977, 0.08593250811100006, 0.026339983567595482, 0.08249912410974503, -0.15722963213920593], [0.0687187984585762, -0.19196471571922302, -0.1431187391281128, -0.112884022295475, 0.5088769793510437, 0.4788145124912262, 0.1744791865348816, -0.2510300576686859, -0.10652127116918564, 0.2084232121706009, -0.018392132595181465, -0.39064863324165344, -0.15535514056682587, 0.559687077999115, 0.6099838018417358, 0.09925858676433563, 0.039239298552274704, -0.37269240617752075, 0.08569180220365524, 0.7264055609703064, -0.3637941777706146, -0.018861373886466026, -0.024356627836823463, 0.19329223036766052, -0.03078325465321541, 0.21053944528102875, 0.11149252951145172, -0.13497282564640045, -0.1898186355829239, -0.039722755551338196, 